
/* Species #1 : (Size 32) (AF 0.160295) (Age 9)  */


/* Organism #0 Fitness: 0.166667 Error: 0 */
genomestart 0
node 1 0 3 0
node 2 0 2 5
node 3 1 2 2
gene 1 3 3 1 3 1
gene 3 2 4 2 4 1
gene 3 1 2 4 2 1
gene 2 3 1 39 1 1
genomeend 0

/* Organism #1 Fitness: 0.166667 Error: 0 */
genomestart 1
node 1 0 3 2
node 2 0 3 1
node 3 1 0 5
gene 1 3 2 1 2 1
gene 3 2 3 2 3 1
gene 3 1 1 4 1 1
gene 2 3 3 39 3 1
genomeend 1

/* Organism #2 Fitness: 0.164399 Error: 0 */
genomestart 2
node 1 0 3 4
node 2 0 0 1
node 3 1 1 0
gene 1 3 3 1 3 1
gene 3 2 5 2 5 1
gene 3 1 1 4 1 1
gene 2 3 1 39 1 1
genomeend 2

/* Organism #3 Fitness: 0.2 Error: 0 */
genomestart 3
node 1 0 3 0
node 2 0 1 2
node 3 1 2 1
gene 1 3 4 1 4 1
gene 3 2 5 2 5 1
gene 3 1 1 4 1 1
gene 2 3 2 39 2 1
genomeend 3

/* Organism #4 Fitness: 0.166667 Error: 0 */
genomestart 4
node 1 0 2 3
node 2 0 2 3
node 3 1 0 0
gene 1 3 3 1 3 1
gene 3 2 5 2 5 1
gene 3 1 1 4 1 1
gene 2 3 1 39 1 1
genomeend 4

/* Organism #5 Fitness: 0.164399 Error: 0 */
genomestart 5
node 1 0 2 4
node 2 0 2 2
node 3 1 3 1
gene 1 3 3 1 3 1
gene 3 2 3 2 3 1
gene 2 3 3 58 3 1
genomeend 5

/* Organism #6 Fitness: 0.166667 Error: 0 */
genomestart 6
node 1 0 3 5
node 2 0 3 3
node 3 1 1 1
gene 1 3 4 1 4 1
gene 3 2 4 2 4 1
gene 3 1 1 4 1 1
gene 2 3 3 39 3 1
genomeend 6

/* Organism #7 Fitness: 0.166667 Error: 0 */
genomestart 7
node 1 0 1 2
node 2 0 3 0
node 3 1 0 5
gene 1 3 3 1 3 1
gene 3 2 4 2 4 1
gene 3 1 2 38 2 1
gene 2 3 1 39 1 1
genomeend 7

/* Organism #8 Fitness: 0.164399 Error: 0 */
genomestart 8
node 1 0 0 0
node 2 0 3 2
node 3 1 0 4
gene 1 3 2 1 2 1
gene 3 2 3 2 3 1
gene 3 1 1 38 1 1
gene 2 3 1 39 1 1
genomeend 8

/* Organism #9 Fitness: 0.166667 Error: 0 */
genomestart 9
node 1 0 0 2
node 2 0 3 4
node 3 1 1 2
node 28 1 0 5
node 29 0 0 0
node 30 1 1 1
gene 1 3 3 1 3 1
gene 3 2 4 2 4 1
gene 2 3 3 3 3 1
gene 30 28 1 20 1 1
gene 2 30 2 20 2 1
gene 28 29 2 20 2 1
gene 2 28 2 20 2 1
gene 29 3 2 146 2 1
genomeend 9

/* Organism #10 Fitness: 0.0995037 Error: 0 */
genomestart 10
node 1 0 3 3
node 2 0 2 1
node 3 1 0 4
node 28 1 0 1
node 29 0 1 4
node 30 1 0 1
gene 1 3 3 1 3 1
gene 3 2 4 2 4 1
gene 2 3 3 3 3 1
gene 30 28 1 20 1 1
gene 2 30 1 20 1 1
gene 28 29 1 20 1 1
gene 2 28 2 20 2 1
gene 29 3 1 146 1 1
genomeend 10

/* Organism #11 Fitness: 0.166667 Error: 0 */
genomestart 11
node 1 0 1 5
node 2 0 1 0
node 3 1 0 4
gene 1 3 3 1 3 1
gene 3 2 3 2 3 1
gene 3 1 3 38 3 1
gene 2 3 1 58 1 1
genomeend 11

/* Organism #12 Fitness: 0.166667 Error: 0 */
genomestart 12
node 1 0 2 0
node 2 0 2 3
node 3 1 3 2
gene 1 3 4 1 4 1
gene 3 2 3 2 3 1
gene 3 1 2 38 2 1
gene 2 3 1 39 1 1
genomeend 12

/* Organism #13 Fitness: 0.125 Error: 0 */
genomestart 13
node 1 0 3 2
node 2 0 1 2
node 3 1 3 0
gene 1 3 3 1 3 1
gene 3 2 2 2 2 1
gene 3 1 2 19 2 1
gene 2 3 1 39 1 1
genomeend 13

/* Organism #14 Fitness: 0.166667 Error: 0 */
genomestart 14
node 1 0 1 1
node 2 0 1 4
node 3 1 3 4
gene 1 3 3 1 3 1
gene 3 2 3 2 3 1
gene 3 1 2 38 2 1
gene 2 3 2 58 2 1
genomeend 14

/* Organism #15 Fitness: 0.164399 Error: 0 */
genomestart 15
node 1 0 1 2
node 2 0 0 5
node 3 1 1 2
gene 1 3 4 1 4 1
gene 3 2 4 2 4 1
genomeend 15

/* Organism #16 Fitness: 0.166667 Error: 0 */
genomestart 16
node 1 0 0 2
node 2 0 1 1
node 3 1 1 2
gene 1 3 4 1 4 1
gene 3 2 4 2 4 1
genomeend 16

/* Organism #17 Fitness: 0.149071 Error: 0 */
genomestart 17
node 1 0 1 5
node 2 0 0 5
node 3 1 3 3
gene 1 3 3 1 3 1
gene 3 2 5 2 5 1
gene 3 1 2 4 2 1
gene 2 3 2 39 2 1
genomeend 17

/* Organism #18 Fitness: 0.0198575 Error: 0 */
genomestart 18
node 1 0 0 1
node 2 0 0 1
node 3 1 2 0
gene 1 3 3 1 3 1
gene 3 2 5 2 5 1
gene 3 1 4 4 4 1
gene 2 3 1 39 1 1
genomeend 18

/* Organism #19 Fitness: 0.166667 Error: 0 */
genomestart 19
node 1 0 0 0
node 2 0 3 1
node 3 1 2 0
gene 1 3 4 1 4 1
gene 3 2 5 2 5 1
gene 3 1 3 4 3 1
gene 2 3 2 39 2 1
genomeend 19

/* Organism #20 Fitness: 0.149071 Error: 0 */
genomestart 20
node 1 0 3 2
node 2 0 0 4
node 3 1 3 5
gene 1 3 2 1 2 1
gene 3 2 1 2 1 1
gene 3 1 2 4 2 1
gene 2 3 2 39 2 1
genomeend 20

/* Organism #21 Fitness: 0.166667 Error: 0 */
genomestart 21
node 1 0 3 1
node 2 0 0 2
node 3 1 0 4
gene 1 3 4 1 4 1
gene 3 2 3 2 3 1
gene 3 1 4 19 4 1
gene 2 3 1 39 1 1
genomeend 21

/* Organism #22 Fitness: 0.166667 Error: 0 */
genomestart 22
node 1 0 3 5
node 2 0 0 2
node 3 1 1 1
gene 1 3 2 1 2 1
gene 3 2 1 2 1 1
gene 3 1 2 4 2 1
gene 2 3 2 39 2 1
genomeend 22

/* Organism #23 Fitness: 0.166667 Error: 0 */
genomestart 23
node 1 0 3 1
node 2 0 1 0
node 3 1 2 0
gene 1 3 4 1 4 1
gene 3 2 4 2 4 1
gene 2 3 1 22 1 1
gene 3 1 3 38 3 1
genomeend 23

/* Organism #24 Fitness: 0.166667 Error: 0 */
genomestart 24
node 1 0 3 1
node 2 0 0 2
node 3 1 0 4
gene 1 3 4 1 4 1
gene 3 2 4 2 4 1
gene 2 3 2 22 2 1
gene 3 1 2 38 2 1
genomeend 24

/* Organism #25 Fitness: 0.164399 Error: 0 */
genomestart 25
node 1 0 3 3
node 2 0 1 4
node 3 1 0 0
node 131 1 0 1
node 132 0 2 1
node 133 1 1 5
gene 1 3 3 1 3 1
gene 3 2 4 2 4 1
gene 2 3 1 96 1 1
gene 133 131 1 111 1 1
gene 1 133 1 111 1 1
gene 131 132 2 111 2 1
gene 1 131 2 111 2 1
genomeend 25

/* Organism #26 Fitness: 0.164399 Error: 0 */
genomestart 26
node 1 0 1 1
node 2 0 0 4
node 3 1 2 2
node 152 1 0 5
node 153 0 3 1
node 154 1 1 1
gene 1 3 4 1 4 1
gene 3 2 3 2 3 1
gene 3 1 2 4 2 1
gene 2 3 1 39 1 1
gene 154 152 2 165 2 1
gene 1 154 1 165 1 1
gene 152 153 2 165 2 1
gene 1 152 1 165 1 1
gene 152 2 1 296 1 1
genomeend 26

/* Organism #27 Fitness: 0.2 Error: 0 */
genomestart 27
node 1 0 0 5
node 2 0 0 0
node 3 1 2 5
node 152 1 0 2
node 153 0 1 2
node 154 1 1 2
gene 1 3 3 1 3 1
gene 3 2 3 2 3 1
gene 3 1 3 4 3 1
gene 2 3 1 39 1 1
gene 154 152 1 165 1 1
gene 1 154 1 165 1 1
gene 152 153 3 165 3 1
gene 1 152 2 165 2 1
gene 154 153 1 294 1 1
genomeend 27

/* Organism #28 Fitness: 0.158114 Error: 0 */
genomestart 28
node 1 0 2 3
node 2 0 2 1
node 3 1 3 1
gene 1 3 3 1 3 1
gene 3 2 3 2 3 1
gene 3 1 2 38 2 1
gene 2 3 2 58 2 1
genomeend 28

/* Organism #29 Fitness: 0.25 Error: 0 */
genomestart 29
node 1 0 0 4
node 2 0 0 0
node 3 1 2 4
node 179 1 0 4
node 180 0 3 0
node 181 1 3 3
gene 1 3 3 1 3 1
gene 3 2 4 2 4 1
gene 3 1 4 19 4 1
gene 2 3 2 96 2 1
gene 181 179 3 256 3 1
gene 1 181 1 256 1 1
gene 179 180 1 256 1 1
gene 1 179 2 256 2 1
genomeend 29

/* Organism #30 Fitness: 0.164399 Error: 0 */
genomestart 30
node 1 0 1 1
node 2 0 1 1
node 3 1 2 1
node 179 1 1 1
node 180 0 2 2
node 181 1 0 5
gene 1 3 3 1 3 1
gene 3 2 4 2 4 1
gene 3 1 4 19 4 1
gene 2 3 3 96 3 1
gene 181 179 1 256 1 1
gene 1 181 1 256 1 1
gene 179 180 1 256 1 1
gene 1 179 1 256 1 1
genomeend 30

/* Organism #31 Fitness: 0.128037 Error: 0 */
genomestart 31
node 1 0 3 4
node 2 0 0 5
node 3 1 0 4
node 28 1 3 3
node 29 0 3 0
node 30 1 3 0
gene 1 3 3 1 3 1
gene 3 2 4 2 4 1
gene 2 3 3 3 3 1
gene 30 28 3 20 3 1
gene 2 30 1 20 1 1
gene 28 29 2 20 2 1
gene 2 28 5 20 5 1
genomeend 31

/* Species #2 : (Size 22) (AF 0.13416) (Age 8)  */


/* Organism #32 Fitness: 0.166667 Error: 0 */
genomestart 32
node 1 0 0 0
node 2 0 1 4
node 3 1 2 4
gene 1 3 1 1 1 1
gene 3 2 5 2 5 1
gene 3 1 1 38 1 1
gene 2 3 4 58 4 1
genomeend 32

/* Organism #33 Fitness: 0.0150143 Error: 0 */
genomestart 33
node 1 0 3 1
node 2 0 0 1
node 3 1 0 3
node 28 1 1 5
node 29 0 2 2
node 30 1 3 1
gene 1 3 1 1 1 1
gene 3 2 5 2 5 1
gene 2 3 1 3 1 1
gene 30 28 1 20 1 1
gene 2 30 1 20 1 1
gene 28 29 3 20 3 1
gene 2 28 2 20 2 1
gene 3 1 1 93 1 1
genomeend 33

/* Organism #34 Fitness: 0.166667 Error: 0 */
genomestart 34
node 1 0 2 4
node 2 0 2 0
node 3 1 2 2
gene 1 3 1 1 1 1
gene 3 2 5 2 5 1
gene 2 3 1 58 1 1
genomeend 34

/* Organism #35 Fitness: 0.164399 Error: 0 */
genomestart 35
node 1 0 0 2
node 2 0 2 1
node 3 1 1 5
node 138 1 2 0
gene 1 3 1 1 1 1
gene 3 2 4 2 4 1
gene 2 3 2 58 2 1
gene 138 1 0 123 0 1
gene 1 138 1 123 1 1
gene 2 138 0 168 0 1
genomeend 35

/* Organism #36 Fitness: 0.166667 Error: 0 */
genomestart 36
node 1 0 1 3
node 2 0 0 4
node 3 1 3 1
gene 1 3 1 1 1 1
gene 3 2 5 2 5 1
gene 3 1 2 38 2 1
gene 2 3 4 58 4 1
genomeend 36

/* Organism #37 Fitness: 0.166667 Error: 0 */
genomestart 37
node 1 0 2 1
node 2 0 2 4
node 3 1 0 0
gene 1 3 2 1 2 1
gene 3 2 5 2 5 1
gene 2 3 2 58 2 1
genomeend 37

/* Organism #38 Fitness: 0.0148462 Error: 0 */
genomestart 38
node 1 0 2 3
node 2 0 2 3
node 3 1 1 3
node 28 1 1 2
node 29 0 3 0
node 30 1 2 4
gene 1 3 1 1 1 1
gene 3 2 5 2 5 1
gene 2 3 1 3 1 1
gene 30 28 1 20 1 1
gene 2 30 1 20 1 1
gene 28 29 4 20 4 1
gene 2 28 2 20 2 1
gene 3 1 1 93 1 1
genomeend 38

/* Organism #39 Fitness: 0.166667 Error: 0 */
genomestart 39
node 1 0 1 4
node 2 0 1 2
node 3 1 1 5
gene 1 3 2 1 2 1
gene 3 2 5 2 5 1
gene 2 3 1 58 1 1
genomeend 39

/* Organism #40 Fitness: 0.166667 Error: 0 */
genomestart 40
node 1 0 0 1
node 2 0 2 4
node 3 1 1 2
gene 1 3 1 1 1 1
gene 3 2 4 2 4 1
gene 2 3 2 58 2 1
genomeend 40

/* Organism #41 Fitness: 0.00943396 Error: 0 */
genomestart 41
node 1 0 2 3
node 2 0 1 5
node 3 1 3 0
node 138 1 3 4
gene 1 3 1 1 1 1
gene 3 2 4 2 4 1
gene 2 3 2 58 2 1
gene 138 1 2 123 2 1
gene 1 138 1 123 1 1
gene 2 138 1 168 1 1
genomeend 41

/* Organism #42 Fitness: 0.164399 Error: 0 */
genomestart 42
node 1 0 1 1
node 2 0 2 5
node 3 1 3 1
gene 1 3 1 1 1 1
gene 3 2 5 2 5 1
gene 2 3 1 58 1 1
genomeend 42

/* Organism #43 Fitness: 0.125 Error: 0 */
genomestart 43
node 1 0 3 1
node 2 0 3 4
node 3 1 3 2
gene 1 3 2 1 2 1
gene 3 2 5 2 5 1
gene 2 3 1 58 1 1
genomeend 43

/* Organism #44 Fitness: 0.166667 Error: 0 */
genomestart 44
node 1 0 3 0
node 2 0 0 0
node 3 1 1 0
node 138 1 3 2
gene 1 3 1 1 1 1
gene 3 2 4 2 4 1
gene 2 3 2 58 2 1
gene 138 1 1 123 1 1
gene 1 138 1 123 1 1
gene 2 138 1 168 1 1
genomeend 44

/* Organism #45 Fitness: 0.164399 Error: 0 */
genomestart 45
node 1 0 3 4
node 2 0 0 2
node 3 1 3 4
node 28 1 2 4
node 29 0 2 3
node 30 1 3 5
gene 1 3 1 1 1 1
gene 3 2 5 2 5 1
gene 2 3 1 3 1 1
gene 30 28 1 20 1 1
gene 2 30 1 20 1 1
gene 28 29 3 20 3 1
gene 2 28 2 20 2 1
gene 3 1 1 93 1 1
gene 29 28 1 343 0 1
genomeend 45

/* Organism #46 Fitness: 0.0137244 Error: 0 */
genomestart 46
node 1 0 2 0
node 2 0 3 1
node 3 1 0 3
node 28 1 2 1
node 29 0 2 5
node 30 1 2 4
gene 1 3 1 1 1 1
gene 3 2 5 2 5 1
gene 2 3 1 3 1 1
gene 30 28 1 20 1 1
gene 2 30 1 20 1 1
gene 28 29 3 20 3 1
gene 2 28 2 20 2 1
gene 3 1 1 93 1 1
genomeend 46

/* Organism #47 Fitness: 0.0827606 Error: 0 */
genomestart 47
node 1 0 0 0
node 2 0 0 4
node 3 1 2 5
node 28 1 1 1
node 29 0 0 0
node 30 1 1 2
gene 1 3 1 1 1 1
gene 3 2 5 2 5 1
gene 2 3 1 3 1 1
gene 30 28 3 20 3 1
gene 2 30 1 20 1 1
gene 28 29 1 20 1 1
gene 2 28 2 20 2 1
genomeend 47

/* Organism #48 Fitness: 0.138675 Error: 0 */
genomestart 48
node 1 0 0 4
node 2 0 3 1
node 3 1 3 1
node 28 1 0 1
node 29 0 3 5
node 30 1 2 0
gene 1 3 1 1 1 1
gene 3 2 5 2 5 1
gene 2 3 4 3 4 1
gene 30 28 1 20 1 1
gene 2 30 1 20 1 1
gene 28 29 1 20 1 1
gene 2 28 2 20 2 1
gene 30 29 2 147 2 1
genomeend 48

/* Organism #49 Fitness: 0.196116 Error: 0 */
genomestart 49
node 1 0 3 0
node 2 0 2 5
node 3 1 1 3
node 28 1 3 0
node 29 0 2 1
node 30 1 2 5
gene 1 3 1 1 1 1
gene 3 2 5 2 5 1
gene 2 3 4 3 4 1
gene 30 28 1 20 1 1
gene 2 30 1 20 1 1
gene 28 29 1 20 1 1
gene 2 28 2 20 2 1
gene 30 29 2 147 2 1
gene 29 3 1 468 1 1
genomeend 49

/* Organism #50 Fitness: 0.164399 Error: 0 */
genomestart 50
node 1 0 1 3
node 2 0 1 0
node 3 1 3 4
node 28 1 0 5
node 29 0 2 5
node 30 1 2 2
gene 1 3 1 1 1 1
gene 3 2 5 2 5 1
gene 2 3 3 3 3 1
gene 30 28 1 20 1 1
gene 2 30 2 20 2 1
gene 28 29 1 20 1 1
gene 2 28 3 20 3 1
genomeend 50

/* Organism #51 Fitness: 0.141421 Error: 0 */
genomestart 51
node 1 0 2 3
node 2 0 1 3
node 3 1 0 2
node 28 1 2 2
node 29 0 1 0
node 30 1 1 5
gene 1 3 1 1 1 1
gene 3 2 5 2 5 1
gene 2 3 5 3 5 1
gene 30 28 2 20 2 1
gene 2 30 1 20 1 1
gene 28 29 2 20 2 1
gene 2 28 3 20 3 1
gene 30 29 2 147 2 1
genomeend 51

/* Organism #52 Fitness: 0.223607 Error: 0 */
genomestart 52
node 1 0 0 0
node 2 0 2 3
node 3 1 1 2
node 28 1 1 4
node 29 0 3 5
node 30 1 1 5
gene 1 3 1 1 1 1
gene 3 2 5 2 5 1
gene 2 3 2 3 2 1
gene 30 28 2 20 2 1
gene 2 30 2 20 2 1
gene 28 29 1 20 1 1
gene 2 28 2 20 2 1
gene 30 29 2 147 2 1
genomeend 52

/* Organism #53 Fitness: 0.166667 Error: 0 */
genomestart 53
node 1 0 3 3
node 2 0 2 2
node 3 1 0 4
node 28 1 0 1
node 29 0 3 2
node 30 1 3 3
gene 1 3 1 1 1 1
gene 3 2 5 2 5 1
gene 2 3 4 3 4 1
gene 30 28 3 20 3 1
gene 2 30 3 20 3 1
gene 28 29 1 20 1 1
gene 2 28 3 20 3 1
genomeend 53

/* Species #3 : (Size 46) (AF 0.172208) (Age 8)  */


/* Organism #54 Fitness: 0.166667 Error: 0 */
genomestart 54
node 1 0 2 0
node 2 0 3 0
node 3 1 2 2
node 28 1 2 3
node 29 0 3 0
node 30 1 3 0
gene 1 3 3 1 3 1
gene 3 2 3 2 3 1
gene 2 3 3 3 3 1
gene 30 28 1 20 1 1
gene 2 30 1 20 1 1
gene 28 29 3 20 3 1
gene 2 28 1 20 1 1
gene 29 3 1 146 1 1
genomeend 54

/* Organism #55 Fitness: 0.142857 Error: 0 */
genomestart 55
node 1 0 2 1
node 2 0 3 3
node 3 1 0 5
node 28 1 3 3
node 29 0 0 4
node 30 1 0 3
gene 1 3 2 1 2 1
gene 3 2 3 2 3 1
gene 2 3 1 3 1 1
gene 30 28 1 20 1 1
gene 2 30 1 20 1 1
gene 28 29 1 20 1 1
gene 2 28 1 20 1 1
gene 1 30 2 155 2 1
gene 29 30 0 345 0 1
genomeend 55

/* Organism #56 Fitness: 0.2 Error: 0 */
genomestart 56
node 1 0 3 5
node 2 0 1 2
node 3 1 0 4
node 28 1 2 1
node 29 0 0 5
node 30 1 0 2
gene 1 3 3 1 3 1
gene 3 2 3 2 3 1
gene 2 3 3 3 3 1
gene 30 28 1 20 1 1
gene 2 30 1 20 1 1
gene 28 29 3 20 3 1
gene 2 28 1 20 1 1
gene 29 3 1 146 1 1
genomeend 56

/* Organism #57 Fitness: 0.242536 Error: 0 */
genomestart 57
node 1 0 1 5
node 2 0 1 0
node 3 1 2 0
node 28 1 2 1
node 29 0 1 4
node 30 1 3 5
gene 1 3 2 1 2 1
gene 3 2 2 2 2 1
gene 2 3 1 3 1 1
gene 30 28 1 20 1 1
gene 2 30 1 20 1 1
gene 28 29 1 20 1 1
gene 2 28 1 20 1 1
gene 1 30 1 155 1 1
genomeend 57

/* Organism #58 Fitness: 0.0198068 Error: 0 */
genomestart 58
node 1 0 2 0
node 2 0 3 1
node 3 1 0 1
node 28 1 2 2
node 29 0 1 2
node 30 1 1 5
gene 1 3 3 1 3 1
gene 3 2 3 2 3 1
gene 2 3 3 3 3 1
gene 30 28 2 20 2 1
gene 2 30 1 20 1 1
gene 28 29 1 20 1 1
gene 2 28 1 20 1 1
gene 29 28 1 98 1 1
gene 30 29 1 103 1 1
gene 3 29 1 149 1 1
gene 30 2 1 346 1 1
genomeend 58

/* Organism #59 Fitness: 0.00998205 Error: 0 */
genomestart 59
node 1 0 3 0
node 2 0 0 0
node 3 1 0 1
node 28 1 0 5
node 29 0 2 1
node 30 1 0 2
gene 1 3 3 1 3 1
gene 3 2 1 2 1 1
gene 2 3 2 3 2 1
gene 30 28 2 20 2 1
gene 2 30 1 20 1 1
gene 28 29 2 20 2 1
gene 2 28 1 20 1 1
gene 3 1 3 59 3 1
gene 30 2 2 157 2 1
genomeend 59

/* Organism #60 Fitness: 0.5 Error: 0 */
genomestart 60
node 1 0 0 1
node 2 0 3 0
node 3 1 0 3
node 28 1 2 4
node 29 0 0 3
node 30 1 2 4
gene 1 3 4 1 4 1
gene 3 2 4 2 4 1
gene 2 3 4 3 4 1
gene 30 28 1 20 1 1
gene 2 30 1 20 1 1
gene 28 29 2 20 2 1
gene 2 28 1 20 1 1
gene 29 3 1 146 1 1
genomeend 60

/* Organism #61 Fitness: 0.164399 Error: 0 */
genomestart 61
node 1 0 3 3
node 2 0 1 4
node 3 1 1 4
node 28 1 0 3
node 29 0 0 4
node 30 1 3 5
gene 1 3 2 1 2 1
gene 3 2 3 2 3 1
gene 2 3 2 3 2 1
gene 30 28 1 20 1 1
gene 2 30 1 20 1 1
gene 28 29 1 20 1 1
gene 2 28 1 20 1 1
gene 1 30 3 155 3 1
genomeend 61

/* Organism #62 Fitness: 0.166667 Error: 0 */
genomestart 62
node 1 0 0 4
node 2 0 0 2
node 3 1 3 3
node 28 1 3 0
node 29 0 1 0
node 30 1 2 3
gene 1 3 3 1 3 1
gene 3 2 3 2 3 1
gene 2 3 3 3 3 1
gene 30 28 1 20 1 1
gene 2 30 1 20 1 1
gene 28 29 3 20 3 1
gene 2 28 1 20 1 1
gene 29 3 1 146 1 1
genomeend 62

/* Organism #63 Fitness: 0.2 Error: 0 */
genomestart 63
node 1 0 1 2
node 2 0 0 5
node 3 1 0 3
node 28 1 0 3
node 29 0 0 5
node 30 1 1 5
gene 1 3 2 1 2 1
gene 3 2 3 2 3 1
gene 2 3 1 3 1 1
gene 30 28 1 20 1 1
gene 2 30 1 20 1 1
gene 28 29 1 20 1 1
gene 2 28 1 20 1 1
gene 1 30 2 155 2 1
gene 28 1 2 348 2 1
genomeend 63

/* Organism #64 Fitness: 0.166667 Error: 0 */
genomestart 64
node 1 0 2 4
node 2 0 3 5
node 3 1 3 3
node 28 1 2 0
node 29 0 0 2
node 30 1 1 1
gene 1 3 3 1 3 1
gene 3 2 2 2 2 1
gene 2 3 1 3 1 1
gene 30 28 1 20 1 1
gene 2 30 1 20 1 1
gene 28 29 2 20 2 1
gene 2 28 3 20 3 1
gene 3 1 1 59 1 1
genomeend 64

/* Organism #65 Fitness: 0.164399 Error: 0 */
genomestart 65
node 1 0 3 0
node 2 0 0 5
node 3 1 0 3
node 28 1 0 3
node 29 0 1 1
node 30 1 3 3
gene 1 3 4 1 4 1
gene 3 2 4 2 4 1
gene 2 3 3 3 3 1
gene 30 28 1 20 1 1
gene 2 30 1 20 1 1
gene 28 29 1 20 1 1
gene 2 28 3 20 3 1
gene 29 3 2 146 2 1
genomeend 65

/* Organism #66 Fitness: 0.164399 Error: 0 */
genomestart 66
node 1 0 2 0
node 2 0 0 2
node 3 1 3 5
node 28 1 1 0
node 29 0 2 1
node 30 1 2 4
gene 1 3 3 1 3 1
gene 3 2 1 2 1 1
gene 2 3 3 3 3 1
gene 30 28 2 20 2 1
gene 2 30 1 20 1 1
gene 28 29 2 20 2 1
gene 2 28 2 20 2 1
gene 28 2 1 156 1 1
gene 29 30 0 224 0 1
genomeend 66

/* Organism #67 Fitness: 0.164399 Error: 0 */
genomestart 67
node 1 0 0 2
node 2 0 3 1
node 3 1 0 1
node 28 1 0 4
node 29 0 3 1
node 30 1 1 1
node 142 1 1 4
node 143 0 1 5
node 144 1 3 5
gene 1 3 3 1 3 1
gene 3 2 3 2 3 1
gene 2 3 3 3 3 1
gene 30 28 1 20 1 1
gene 2 30 1 20 1 1
gene 28 29 2 20 2 1
gene 2 28 1 20 1 1
gene 144 142 1 151 1 1
gene 2 144 1 151 1 1
gene 142 143 2 151 2 1
gene 2 142 2 151 2 1
gene 29 142 0 418 0 1
genomeend 67

/* Organism #68 Fitness: 0.158114 Error: 0 */
genomestart 68
node 1 0 1 4
node 2 0 3 2
node 3 1 0 1
node 28 1 0 1
node 29 0 0 3
node 30 1 2 2
gene 1 3 3 1 3 1
gene 3 2 3 2 3 1
gene 2 3 1 3 1 1
gene 30 28 2 20 2 1
gene 2 30 1 20 1 1
gene 28 29 2 20 2 1
gene 2 28 4 20 4 1
genomeend 68

/* Organism #69 Fitness: 0.196116 Error: 0 */
genomestart 69
node 1 0 3 1
node 2 0 1 0
node 3 1 2 0
node 28 1 0 0
node 29 0 0 1
node 30 1 0 1
node 142 1 0 0
node 143 0 3 3
node 144 1 2 1
gene 1 3 3 1 3 1
gene 3 2 3 2 3 1
gene 2 3 2 3 2 1
gene 30 28 1 20 1 1
gene 2 30 1 20 1 1
gene 28 29 3 20 3 1
gene 2 28 1 20 1 1
gene 144 142 2 151 2 1
gene 2 144 2 151 2 1
gene 142 143 1 151 1 1
gene 2 142 2 151 2 1
genomeend 69

/* Organism #70 Fitness: 0.25 Error: 0 */
genomestart 70
node 1 0 0 5
node 2 0 2 3
node 3 1 1 3
node 28 1 0 4
node 29 0 0 5
node 30 1 2 5
gene 1 3 4 1 4 1
gene 3 2 2 2 2 1
gene 2 3 2 3 2 1
gene 30 28 3 20 3 1
gene 2 30 2 20 2 1
gene 28 29 3 20 3 1
gene 2 28 1 20 1 1
genomeend 70

/* Organism #71 Fitness: 0.166667 Error: 0 */
genomestart 71
node 1 0 3 4
node 2 0 0 3
node 3 1 2 5
node 28 1 0 0
node 29 0 3 3
node 30 1 2 2
node 142 1 3 0
node 143 0 3 5
node 144 1 2 2
gene 1 3 3 1 3 1
gene 3 2 2 2 2 1
gene 2 3 3 3 3 1
gene 30 28 1 20 1 1
gene 2 30 1 20 1 1
gene 28 29 2 20 2 1
gene 2 28 1 20 1 1
gene 144 142 1 151 1 1
gene 2 144 1 151 1 1
gene 142 143 1 151 1 1
gene 2 142 1 151 1 1
genomeend 71

/* Organism #72 Fitness: 0.196116 Error: 0 */
genomestart 72
node 1 0 0 3
node 2 0 3 2
node 3 1 0 3
node 28 1 0 1
node 29 0 0 2
node 30 1 2 0
node 142 1 2 2
node 143 0 2 0
node 144 1 3 4
gene 1 3 3 1 3 1
gene 3 2 2 2 2 1
gene 2 3 3 3 3 1
gene 30 28 1 20 1 1
gene 2 30 2 20 2 1
gene 28 29 2 20 2 1
gene 2 28 1 20 1 1
gene 144 142 1 151 1 1
gene 2 144 2 151 2 1
gene 142 143 1 151 1 1
gene 2 142 1 151 1 1
genomeend 72

/* Organism #73 Fitness: 0.124035 Error: 0 */
genomestart 73
node 1 0 0 4
node 2 0 2 4
node 3 1 1 5
node 28 1 0 2
node 29 0 2 3
node 30 1 2 5
node 142 1 3 4
node 143 0 3 5
node 144 1 0 5
gene 1 3 2 1 2 1
gene 3 2 2 2 2 1
gene 2 3 3 3 3 1
gene 30 28 1 20 1 1
gene 2 30 1 20 1 1
gene 28 29 3 20 3 1
gene 2 28 1 20 1 1
gene 144 142 1 151 1 1
gene 2 144 1 151 1 1
gene 142 143 1 151 1 1
gene 2 142 1 151 1 1
genomeend 73

/* Organism #74 Fitness: 0.164399 Error: 0 */
genomestart 74
node 1 0 1 1
node 2 0 2 2
node 3 1 2 4
node 28 1 2 4
node 29 0 2 4
node 30 1 1 3
node 142 1 0 1
node 143 0 3 2
node 144 1 2 5
gene 1 3 3 1 3 1
gene 3 2 3 2 3 1
gene 2 3 3 3 3 1
gene 30 28 1 20 1 1
gene 2 30 2 20 2 1
gene 28 29 2 20 2 1
gene 2 28 1 20 1 1
gene 144 142 1 151 1 1
gene 2 144 2 151 2 1
gene 142 143 2 151 2 1
gene 2 142 2 151 2 1
gene 144 143 2 320 2 1
genomeend 74

/* Organism #75 Fitness: 0.125 Error: 0 */
genomestart 75
node 1 0 3 5
node 2 0 2 0
node 3 1 3 2
node 28 1 3 1
node 29 0 0 5
node 30 1 2 0
node 142 1 0 3
node 143 0 1 2
node 144 1 2 2
gene 1 3 2 1 2 1
gene 3 2 3 2 3 1
gene 2 3 3 3 3 1
gene 30 28 1 20 1 1
gene 2 30 1 20 1 1
gene 28 29 4 20 4 1
gene 2 28 1 20 1 1
gene 144 142 1 151 1 1
gene 2 144 1 151 1 1
gene 142 143 1 151 1 1
gene 2 142 2 151 2 1
genomeend 75

/* Organism #76 Fitness: 0.166667 Error: 0 */
genomestart 76
node 1 0 3 2
node 2 0 0 5
node 3 1 1 2
node 28 1 2 5
node 29 0 0 0
node 30 1 3 4
node 142 1 0 4
node 143 0 0 4
node 144 1 2 0
gene 1 3 3 1 3 1
gene 3 2 2 2 2 1
gene 2 3 3 3 3 1
gene 30 28 1 20 1 1
gene 2 30 1 20 1 1
gene 28 29 2 20 2 1
gene 2 28 1 20 1 1
gene 144 142 1 151 1 1
gene 2 144 1 151 1 1
gene 142 143 1 151 1 1
gene 2 142 1 151 1 1
genomeend 76

/* Organism #77 Fitness: 0.166667 Error: 0 */
genomestart 77
node 1 0 0 2
node 2 0 2 1
node 3 1 2 3
node 28 1 0 4
node 29 0 3 1
node 30 1 3 5
node 142 1 2 5
node 143 0 2 0
node 144 1 3 1
gene 1 3 4 1 4 1
gene 3 2 3 2 3 1
gene 2 3 3 3 3 1
gene 30 28 1 20 1 1
gene 2 30 1 20 1 1
gene 28 29 2 20 2 1
gene 2 28 1 20 1 1
gene 144 142 1 151 1 1
gene 2 144 2 151 2 1
gene 142 143 1 151 1 1
gene 2 142 1 151 1 1
genomeend 77

/* Organism #78 Fitness: 0.141421 Error: 0 */
genomestart 78
node 1 0 2 0
node 2 0 1 2
node 3 1 0 0
node 28 1 3 5
node 29 0 1 1
node 30 1 3 3
node 142 1 1 0
node 143 0 2 1
node 144 1 0 4
gene 1 3 3 1 3 1
gene 3 2 2 2 2 1
gene 2 3 3 3 3 1
gene 30 28 1 20 1 1
gene 2 30 1 20 1 1
gene 28 29 2 20 2 1
gene 2 28 1 20 1 1
gene 144 142 1 151 1 1
gene 2 144 2 151 2 1
gene 142 143 1 151 1 1
gene 2 142 2 151 2 1
gene 144 143 3 320 3 1
genomeend 78

/* Organism #79 Fitness: 0.166667 Error: 0 */
genomestart 79
node 1 0 0 1
node 2 0 1 3
node 3 1 2 5
node 28 1 3 0
node 29 0 3 5
node 30 1 2 3
node 142 1 1 0
node 143 0 1 0
node 144 1 0 4
gene 1 3 3 1 3 1
gene 3 2 2 2 2 1
gene 2 3 3 3 3 1
gene 30 28 1 20 1 1
gene 2 30 1 20 1 1
gene 28 29 2 20 2 1
gene 2 28 1 20 1 1
gene 144 142 1 151 1 1
gene 2 144 1 151 1 1
gene 142 143 1 151 1 1
gene 2 142 1 151 1 1
gene 144 143 2 320 2 1
genomeend 79

/* Organism #80 Fitness: 0.138675 Error: 0 */
genomestart 80
node 1 0 2 4
node 2 0 1 4
node 3 1 0 1
node 28 1 3 0
node 29 0 0 1
node 30 1 1 5
gene 1 3 4 1 4 1
gene 3 2 4 2 4 1
gene 2 3 4 3 4 1
gene 30 28 3 20 3 1
gene 2 30 1 20 1 1
gene 28 29 3 20 3 1
gene 2 28 1 20 1 1
gene 30 1 2 116 2 1
gene 29 3 1 146 1 1
genomeend 80

/* Organism #81 Fitness: 0.176777 Error: 0 */
genomestart 81
node 1 0 3 4
node 2 0 0 5
node 3 1 2 3
node 28 1 1 0
node 29 0 1 3
node 30 1 0 5
gene 1 3 4 1 4 1
gene 3 2 4 2 4 1
gene 2 3 2 3 2 1
gene 30 28 1 20 1 1
gene 2 30 1 20 1 1
gene 28 29 2 20 2 1
gene 2 28 2 20 2 1
gene 29 30 1 345 1 1
genomeend 81

/* Organism #82 Fitness: 0.158114 Error: 0 */
genomestart 82
node 1 0 2 2
node 2 0 3 0
node 3 1 1 4
node 28 1 3 1
node 29 0 3 4
node 30 1 1 4
gene 1 3 1 1 1 1
gene 3 2 1 2 1 1
gene 2 3 2 3 2 1
gene 30 28 1 20 1 1
gene 2 30 1 20 1 1
gene 28 29 1 20 1 1
gene 2 28 3 20 3 1
gene 29 28 1 98 1 1
gene 29 3 1 146 1 1
genomeend 82

/* Organism #83 Fitness: 0.2 Error: 0 */
genomestart 83
node 1 0 0 3
node 2 0 3 2
node 3 1 1 5
node 28 1 1 4
node 29 0 3 4
node 30 1 2 4
gene 1 3 1 1 1 1
gene 3 2 1 2 1 1
gene 2 3 1 3 2 1
gene 30 28 1 20 1 1
gene 2 30 1 20 1 1
gene 28 29 1 20 1 1
gene 2 28 3 20 3 1
gene 29 28 1 98 1 1
gene 29 3 1 146 1 1
genomeend 83

/* Organism #84 Fitness: 0.196116 Error: 0 */
genomestart 84
node 1 0 1 4
node 2 0 1 5
node 3 1 3 0
node 28 1 2 0
node 29 0 1 4
node 30 1 0 3
gene 1 3 1 1 1 1
gene 3 2 1 2 1 1
gene 2 3 3 3 3 1
gene 30 28 1 20 1 1
gene 2 30 1 20 1 1
gene 28 29 1 20 1 1
gene 2 28 2 20 2 1
gene 29 28 1 98 1 1
gene 29 3 1 146 1 1
genomeend 84

/* Organism #85 Fitness: 0.149071 Error: 0 */
genomestart 85
node 1 0 0 4
node 2 0 3 5
node 3 1 0 1
node 28 1 3 3
node 29 0 0 4
node 30 1 2 3
gene 1 3 1 1 1 1
gene 3 2 1 2 1 1
gene 2 3 3 3 3 1
gene 30 28 1 20 1 1
gene 2 30 1 20 1 1
gene 28 29 1 20 1 1
gene 2 28 3 20 3 1
gene 29 28 1 98 1 1
gene 29 3 1 146 1 1
genomeend 85

/* Organism #86 Fitness: 0.166667 Error: 0 */
genomestart 86
node 1 0 3 4
node 2 0 3 5
node 3 1 2 0
node 28 1 1 0
node 29 0 2 3
node 30 1 2 3
gene 1 3 1 1 1 1
gene 3 2 1 2 1 1
gene 2 3 2 3 2 1
gene 30 28 1 20 1 1
gene 2 30 1 20 1 1
gene 28 29 1 20 1 1
gene 2 28 3 20 3 1
gene 29 28 1 98 1 1
gene 29 3 1 146 1 1
genomeend 86

/* Organism #87 Fitness: 0.2 Error: 0 */
genomestart 87
node 1 0 1 3
node 2 0 3 4
node 3 1 3 2
node 28 1 0 4
node 29 0 0 4
node 30 1 2 0
gene 1 3 1 1 1 1
gene 3 2 1 2 1 1
gene 2 3 3 3 3 1
gene 30 28 1 20 1 1
gene 2 30 1 20 1 1
gene 28 29 1 20 1 1
gene 2 28 2 20 2 1
gene 29 28 2 98 2 1
gene 29 3 1 146 1 1
genomeend 87

/* Organism #88 Fitness: 0.125 Error: 0 */
genomestart 88
node 1 0 1 0
node 2 0 0 5
node 3 1 2 0
node 28 1 2 0
node 29 0 2 4
node 30 1 3 2
gene 1 3 1 1 1 1
gene 3 2 1 2 1 1
gene 2 3 2 3 2 1
gene 30 28 1 20 1 1
gene 2 30 1 20 1 1
gene 28 29 1 20 1 1
gene 2 28 2 20 2 1
gene 29 28 1 98 1 1
gene 29 3 2 146 2 1
genomeend 88

/* Organism #89 Fitness: 0.141421 Error: 0 */
genomestart 89
node 1 0 0 2
node 2 0 3 2
node 3 1 1 5
node 28 1 1 4
node 29 0 2 1
node 30 1 3 1
gene 1 3 1 1 1 1
gene 3 2 1 2 1 1
gene 2 3 3 3 3 1
gene 30 28 2 20 2 1
gene 2 30 1 20 1 1
gene 28 29 2 20 2 1
gene 2 28 4 20 4 1
gene 29 28 1 98 1 1
gene 29 3 1 146 1 1
genomeend 89

/* Organism #90 Fitness: 0.166667 Error: 0 */
genomestart 90
node 1 0 3 1
node 2 0 3 5
node 3 1 1 2
node 28 1 0 5
node 29 0 3 3
node 30 1 2 3
gene 1 3 1 1 1 1
gene 3 2 1 2 1 1
gene 2 3 1 3 1 1
gene 30 28 1 20 1 1
gene 2 30 1 20 1 1
gene 28 29 2 20 2 1
gene 2 28 3 20 3 1
gene 29 28 1 98 1 1
gene 29 3 1 146 1 1
genomeend 90

/* Organism #91 Fitness: 0.166667 Error: 0 */
genomestart 91
node 1 0 1 5
node 2 0 3 0
node 3 1 3 0
node 28 1 3 0
node 29 0 3 1
node 30 1 2 3
gene 1 3 4 1 4 1
gene 3 2 2 2 2 1
gene 2 3 3 3 3 1
gene 30 28 1 20 1 1
gene 2 30 2 20 2 1
gene 28 29 1 20 1 1
gene 2 28 2 20 2 1
gene 29 28 2 60 2 1
genomeend 91

/* Organism #92 Fitness: 0.196116 Error: 0 */
genomestart 92
node 1 0 1 4
node 2 0 0 0
node 3 1 3 4
node 28 1 3 3
node 29 0 1 5
node 30 1 1 3
gene 1 3 4 1 4 1
gene 3 2 2 2 2 1
gene 2 3 3 3 3 1
gene 30 28 1 20 1 1
gene 2 30 2 20 2 1
gene 28 29 1 20 1 1
gene 2 28 2 20 2 1
gene 29 28 2 60 2 1
genomeend 92

/* Organism #93 Fitness: 0.2 Error: 0 */
genomestart 93
node 1 0 3 4
node 2 0 2 3
node 3 1 1 5
node 28 1 0 1
node 29 0 2 0
node 30 1 2 2
gene 1 3 4 1 4 1
gene 3 2 2 2 2 1
gene 2 3 3 3 3 1
gene 30 28 1 20 1 1
gene 2 30 2 20 2 1
gene 28 29 1 20 1 1
gene 2 28 2 20 2 1
gene 29 28 2 60 2 1
genomeend 93

/* Organism #94 Fitness: 0.125 Error: 0 */
genomestart 94
node 1 0 2 3
node 2 0 3 4
node 3 1 3 3
node 28 1 0 5
node 29 0 2 2
node 30 1 0 1
gene 1 3 4 1 4 1
gene 3 2 3 2 3 1
gene 2 3 3 3 3 1
gene 30 28 1 20 1 1
gene 2 30 1 20 1 1
gene 28 29 2 20 2 1
gene 2 28 3 20 3 1
gene 29 28 2 98 2 1
gene 30 29 1 103 1 1
gene 3 29 1 149 1 1
genomeend 94

/* Organism #95 Fitness: 0.164399 Error: 0 */
genomestart 95
node 1 0 2 3
node 2 0 1 5
node 3 1 1 5
node 28 1 0 2
node 29 0 2 0
node 30 1 3 4
gene 1 3 4 1 4 1
gene 3 2 2 2 2 1
gene 2 3 3 3 3 1
gene 30 28 1 20 1 1
gene 2 30 2 20 2 1
gene 28 29 1 20 1 1
gene 2 28 2 20 2 1
gene 29 28 2 60 2 1
genomeend 95

/* Organism #96 Fitness: 0.196116 Error: 0 */
genomestart 96
node 1 0 0 2
node 2 0 2 2
node 3 1 1 0
node 28 1 3 2
node 29 0 2 1
node 30 1 2 1
gene 1 3 4 1 4 1
gene 3 2 2 2 2 1
gene 2 3 3 3 3 1
gene 30 28 1 20 1 1
gene 2 30 2 20 2 1
gene 28 29 1 20 1 1
gene 2 28 2 20 2 1
gene 29 28 2 60 2 1
genomeend 96

/* Organism #97 Fitness: 0.27735 Error: 0 */
genomestart 97
node 1 0 1 2
node 2 0 0 0
node 3 1 0 3
node 28 1 1 4
node 29 0 1 1
node 30 1 3 0
gene 1 3 3 1 3 1
gene 3 2 1 2 1 1
gene 2 3 2 3 2 1
gene 30 28 1 20 1 1
gene 2 30 1 20 1 1
gene 28 29 2 20 2 1
gene 2 28 1 20 1 1
gene 28 2 2 156 2 1
gene 30 1 2 225 2 1
gene 30 29 1 305 1 1
genomeend 97

/* Organism #98 Fitness: 0.0827606 Error: 0 */
genomestart 98
node 1 0 1 1
node 2 0 0 1
node 3 1 1 3
node 28 1 1 1
node 29 0 1 2
node 30 1 1 0
gene 1 3 4 1 4 1
gene 3 2 1 2 1 1
gene 2 3 2 3 2 1
gene 30 28 1 20 1 1
gene 2 30 1 20 1 1
gene 28 29 3 20 3 1
gene 2 28 1 20 1 1
gene 28 2 2 156 2 1
gene 30 1 3 225 3 1
gene 30 29 2 305 2 1
genomeend 98

/* Organism #99 Fitness: 0.2 Error: 0 */
genomestart 99
node 1 0 2 5
node 2 0 1 2
node 3 1 2 0
node 28 1 0 1
node 29 0 0 5
node 30 1 3 2
gene 1 3 3 1 3 1
gene 3 2 3 2 3 1
gene 2 3 3 3 3 1
gene 30 28 3 20 3 1
gene 2 30 2 20 2 1
gene 28 29 2 20 2 1
gene 2 28 4 20 4 1
genomeend 99

/* Species #4 : (Size 37) (AF 0.164071) (Age 7)  */


/* Organism #100 Fitness: 0.110432 Error: 0 */
genomestart 100
node 1 0 0 2
node 2 0 1 4
node 3 1 3 1
node 91 1 3 5
node 92 0 1 5
node 93 1 0 1
gene 1 3 4 1 4 1
gene 3 2 1 2 1 1
gene 3 1 1 19 1 1
gene 93 91 1 82 1 1
gene 2 93 1 82 1 1
gene 91 92 1 82 1 1
gene 2 91 1 82 1 1
gene 93 1 0 239 0 1
genomeend 100

/* Organism #101 Fitness: 0.176777 Error: 0 */
genomestart 101
node 1 0 0 4
node 2 0 0 1
node 3 1 3 1
node 91 1 1 4
node 92 0 1 3
node 93 1 1 0
gene 1 3 4 1 4 1
gene 3 2 2 2 2 1
gene 3 1 1 19 1 1
gene 93 91 1 82 1 1
gene 2 93 1 82 1 1
gene 91 92 2 82 2 1
gene 2 91 1 82 1 1
gene 2 3 0 351 0 1
genomeend 101

/* Organism #102 Fitness: 0.166667 Error: 0 */
genomestart 102
node 1 0 3 1
node 2 0 2 1
node 3 1 0 5
node 91 1 3 0
node 92 0 2 3
node 93 1 0 5
gene 1 3 4 1 4 1
gene 3 2 1 2 1 1
gene 3 1 2 19 2 1
gene 93 91 2 82 2 1
gene 2 93 1 82 1 1
gene 91 92 1 82 1 1
gene 2 91 1 82 1 1
gene 1 91 2 194 2 1
genomeend 102

/* Organism #103 Fitness: 0.25 Error: 0 */
genomestart 103
node 1 0 0 1
node 2 0 1 0
node 3 1 0 5
node 91 1 0 5
node 92 0 1 1
node 93 1 0 2
gene 1 3 4 1 4 1
gene 3 2 1 2 1 1
gene 3 1 2 19 1 1
gene 93 91 1 82 1 1
gene 2 93 1 82 1 1
gene 91 92 1 82 1 1
gene 2 91 1 82 1 1
gene 93 92 0 191 0 1
gene 92 93 2 242 2 1
gene 93 1 1 352 1 1
genomeend 103

/* Organism #104 Fitness: 0.141421 Error: 0 */
genomestart 104
node 1 0 2 5
node 2 0 0 4
node 3 1 0 0
node 91 1 3 5
node 92 0 3 3
node 93 1 2 3
gene 1 3 5 1 5 1
gene 3 2 1 2 1 1
gene 3 1 1 19 1 1
gene 93 91 1 82 1 1
gene 2 93 2 82 2 1
gene 91 92 2 82 2 1
gene 2 91 1 82 1 1
genomeend 104

/* Organism #105 Fitness: 0.166667 Error: 0 */
genomestart 105
node 1 0 1 3
node 2 0 0 1
node 3 1 1 3
node 91 1 3 5
node 92 0 0 3
node 93 1 2 4
gene 1 3 3 1 3 1
gene 3 2 3 2 3 1
gene 3 1 2 19 2 1
gene 93 91 1 82 1 1
gene 2 93 2 82 2 1
gene 91 92 1 82 1 1
gene 2 91 2 82 2 1
gene 2 3 1 148 1 1
genomeend 105

/* Organism #106 Fitness: 0.156174 Error: 0 */
genomestart 106
node 1 0 3 4
node 2 0 3 0
node 3 1 0 3
node 91 1 3 2
node 92 0 1 0
node 93 1 3 1
gene 1 3 4 1 4 1
gene 3 2 2 2 2 1
gene 3 1 1 19 1 1
gene 93 91 1 82 1 1
gene 2 93 2 82 2 1
gene 91 92 1 82 1 1
gene 2 91 1 82 1 1
gene 93 92 1 191 1 1
gene 92 93 3 242 3 1
genomeend 106

/* Organism #107 Fitness: 0.196116 Error: 0 */
genomestart 107
node 1 0 0 0
node 2 0 1 2
node 3 1 3 2
node 91 1 0 1
node 92 0 0 5
node 93 1 3 2
gene 1 3 5 1 5 1
gene 3 2 2 2 2 1
gene 3 1 3 19 3 1
gene 93 91 1 82 1 1
gene 2 93 2 82 2 1
gene 91 92 2 82 2 1
gene 2 91 2 82 2 1
genomeend 107

/* Organism #108 Fitness: 0.1 Error: 0 */
genomestart 108
node 1 0 0 2
node 2 0 0 0
node 3 1 1 4
node 91 1 1 5
node 92 0 0 5
node 93 1 1 5
gene 1 3 4 1 4 1
gene 3 2 1 2 1 1
gene 3 1 2 19 2 1
gene 93 91 3 82 3 1
gene 2 93 2 82 2 1
gene 91 92 2 82 2 1
gene 2 91 1 82 1 1
gene 1 91 2 194 2 1
genomeend 108

/* Organism #109 Fitness: 0.0928477 Error: 0 */
genomestart 109
node 1 0 3 2
node 2 0 0 5
node 3 1 0 4
node 91 1 3 4
node 92 0 3 5
node 93 1 2 0
gene 1 3 4 1 4 1
gene 3 2 1 2 1 1
gene 3 1 1 19 1 1
gene 93 91 1 82 1 1
gene 2 93 1 82 1 1
gene 91 92 1 82 1 1
gene 2 91 1 82 1 1
gene 2 3 0 96 0 1
gene 92 91 0 174 0 1
gene 91 2 1 238 0 1
genomeend 109

/* Organism #110 Fitness: 0.164399 Error: 0 */
genomestart 110
node 1 0 2 0
node 2 0 0 3
node 3 1 1 0
gene 1 3 4 1 4 1
gene 3 2 2 2 2 1
gene 3 1 1 19 1 1
gene 2 3 2 58 2 1
genomeend 110

/* Organism #111 Fitness: 0.166667 Error: 0 */
genomestart 111
node 1 0 1 1
node 2 0 2 3
node 3 1 0 5
gene 1 3 4 1 4 1
gene 3 2 1 2 1 1
gene 3 1 1 19 1 1
gene 2 3 2 58 2 1
genomeend 111

/* Organism #112 Fitness: 0.27735 Error: 0 */
genomestart 112
node 1 0 0 2
node 2 0 0 3
node 3 1 1 1
node 91 1 2 2
node 92 0 1 4
node 93 1 3 4
gene 1 3 4 1 4 1
gene 3 2 1 2 1 1
gene 3 1 1 19 1 1
gene 93 91 1 82 1 1
gene 2 93 1 82 1 1
gene 91 92 1 82 1 1
gene 2 91 1 82 1 1
gene 2 3 0 96 0 1
gene 92 91 0 174 0 1
gene 91 2 1 238 0 1
genomeend 112

/* Organism #113 Fitness: 0.164399 Error: 0 */
genomestart 113
node 1 0 1 4
node 2 0 3 3
node 3 1 1 0
gene 1 3 4 1 4 1
gene 3 2 1 2 1 1
gene 3 1 1 19 1 1
gene 2 3 1 39 1 1
genomeend 113

/* Organism #114 Fitness: 0.2 Error: 0 */
genomestart 114
node 1 0 0 4
node 2 0 1 1
node 3 1 1 5
gene 1 3 4 1 4 1
gene 3 2 1 2 1 1
gene 3 1 1 19 1 1
gene 2 3 2 58 2 1
genomeend 114

/* Organism #115 Fitness: 0.142857 Error: 0 */
genomestart 115
node 1 0 1 1
node 2 0 2 1
node 3 1 3 2
gene 1 3 4 1 4 1
gene 3 2 1 2 1 1
gene 3 1 1 19 1 1
gene 2 3 2 58 2 1
genomeend 115

/* Organism #116 Fitness: 0.166667 Error: 0 */
genomestart 116
node 1 0 3 3
node 2 0 3 0
node 3 1 3 0
gene 1 3 5 1 5 1
gene 3 2 1 2 1 1
gene 3 1 1 19 1 1
gene 2 3 1 39 1 1
genomeend 116

/* Organism #117 Fitness: 0.0928477 Error: 0 */
genomestart 117
node 1 0 3 4
node 2 0 0 4
node 3 1 2 1
node 91 1 3 0
node 92 0 0 2
node 93 1 3 5
gene 1 3 4 1 4 1
gene 3 2 1 2 1 1
gene 3 1 1 19 1 1
gene 93 91 1 82 1 1
gene 2 93 1 82 1 1
gene 91 92 1 82 1 1
gene 2 91 1 82 1 1
gene 2 3 1 96 1 1
gene 92 91 1 174 1 1
gene 91 2 1 238 1 1
genomeend 117

/* Organism #118 Fitness: 0.166667 Error: 0 */
genomestart 118
node 1 0 1 5
node 2 0 2 0
node 3 1 3 0
gene 1 3 4 1 4 1
gene 3 2 2 2 2 1
gene 3 1 1 19 1 1
gene 2 3 2 58 2 1
genomeend 118

/* Organism #119 Fitness: 0.166667 Error: 0 */
genomestart 119
node 1 0 2 0
node 2 0 0 1
node 3 1 1 0
gene 1 3 4 1 4 1
gene 3 2 1 2 1 1
gene 3 1 1 19 1 1
gene 2 3 3 58 3 1
genomeend 119

/* Organism #120 Fitness: 0.166667 Error: 0 */
genomestart 120
node 1 0 2 1
node 2 0 0 4
node 3 1 2 2
gene 1 3 4 1 4 1
gene 3 2 1 2 1 1
gene 3 1 1 19 1 1
gene 2 3 3 58 3 1
genomeend 120

/* Organism #121 Fitness: 0.166667 Error: 0 */
genomestart 121
node 1 0 0 5
node 2 0 3 2
node 3 1 0 5
gene 1 3 3 1 3 1
gene 3 2 1 2 1 1
gene 3 1 1 19 1 1
gene 2 3 4 39 4 1
genomeend 121

/* Organism #122 Fitness: 0.166667 Error: 0 */
genomestart 122
node 1 0 3 2
node 2 0 0 5
node 3 1 1 2
gene 1 3 4 1 4 1
gene 3 2 1 2 1 1
gene 3 1 1 19 1 1
gene 2 3 3 39 3 1
genomeend 122

/* Organism #123 Fitness: 0.166667 Error: 0 */
genomestart 123
node 1 0 0 4
node 2 0 1 4
node 3 1 1 5
gene 1 3 4 1 4 1
gene 3 2 1 2 1 1
gene 3 1 2 19 2 1
gene 2 3 3 39 3 1
genomeend 123

/* Organism #124 Fitness: 0.166667 Error: 0 */
genomestart 124
node 1 0 2 1
node 2 0 1 2
node 3 1 0 1
gene 1 3 4 1 4 1
gene 3 2 1 2 1 1
gene 3 1 1 38 1 1
gene 2 3 2 58 2 1
genomeend 124

/* Organism #125 Fitness: 0.142857 Error: 0 */
genomestart 125
node 1 0 2 2
node 2 0 0 5
node 3 1 0 1
gene 1 3 3 1 3 1
gene 3 2 1 2 1 1
gene 3 1 1 19 1 1
gene 2 3 3 39 3 1
genomeend 125

/* Organism #126 Fitness: 0.166667 Error: 0 */
genomestart 126
node 1 0 3 0
node 2 0 3 0
node 3 1 2 5
gene 1 3 3 1 3 1
gene 3 2 1 2 1 1
gene 3 1 1 19 1 1
gene 2 3 4 39 4 1
genomeend 126

/* Organism #127 Fitness: 0.166667 Error: 0 */
genomestart 127
node 1 0 3 5
node 2 0 1 4
node 3 1 2 2
gene 1 3 3 1 3 1
gene 3 2 1 2 1 1
gene 3 1 1 19 1 1
gene 2 3 3 39 3 1
genomeend 127

/* Organism #128 Fitness: 0.166667 Error: 0 */
genomestart 128
node 1 0 0 0
node 2 0 0 5
node 3 1 0 0
gene 1 3 4 1 4 1
gene 3 2 1 2 1 1
gene 3 1 2 19 2 1
gene 2 3 1 39 1 1
genomeend 128

/* Organism #129 Fitness: 0.164399 Error: 0 */
genomestart 129
node 1 0 3 5
node 2 0 2 5
node 3 1 1 0
gene 1 3 4 1 4 1
gene 3 2 1 2 1 1
gene 3 1 2 19 2 1
gene 2 3 1 39 1 1
genomeend 129

/* Organism #130 Fitness: 0.166667 Error: 0 */
genomestart 130
node 1 0 0 4
node 2 0 2 5
node 3 1 2 1
gene 1 3 4 1 4 1
gene 3 2 1 2 1 1
gene 3 1 2 19 2 1
gene 2 3 1 39 1 1
genomeend 130

/* Organism #131 Fitness: 0.164399 Error: 0 */
genomestart 131
node 1 0 3 5
node 2 0 3 4
node 3 1 1 1
gene 1 3 4 1 4 1
gene 3 2 2 2 2 1
gene 3 1 1 19 1 1
gene 2 3 3 39 3 1
genomeend 131

/* Organism #132 Fitness: 0.166667 Error: 0 */
genomestart 132
node 1 0 3 0
node 2 0 0 4
node 3 1 1 4
gene 1 3 4 1 4 1
gene 3 2 1 2 1 1
gene 2 3 1 96 1 1
gene 3 1 2 145 2 1
genomeend 132

/* Organism #133 Fitness: 0.166667 Error: 0 */
genomestart 133
node 1 0 3 4
node 2 0 2 2
node 3 1 0 3
gene 1 3 4 1 4 1
gene 3 2 1 2 1 1
gene 3 1 1 19 1 1
gene 2 3 1 58 1 1
genomeend 133

/* Organism #134 Fitness: 0.166667 Error: 0 */
genomestart 134
node 1 0 2 3
node 2 0 2 0
node 3 1 0 4
gene 1 3 4 1 4 1
gene 3 2 2 2 2 1
gene 3 1 1 19 1 1
gene 2 3 3 39 3 1
genomeend 134

/* Organism #135 Fitness: 0.166667 Error: 0 */
genomestart 135
node 1 0 0 4
node 2 0 1 4
node 3 1 3 2
gene 1 3 4 1 4 1
gene 3 2 1 2 1 1
gene 2 3 3 22 3 1
gene 3 1 1 59 1 1
genomeend 135

/* Organism #136 Fitness: 0.166667 Error: 0 */
genomestart 136
node 1 0 1 4
node 2 0 2 3
node 3 1 0 5
gene 1 3 5 1 5 1
gene 3 2 1 2 1 1
gene 3 1 1 19 1 1
gene 2 3 2 39 2 1
genomeend 136

/* Species #6 : (Size 71) (AF 0.167114) (Age 7)  */


/* Organism #137 Fitness: 0.166667 Error: 0 */
genomestart 137
node 1 0 1 1
node 2 0 3 3
node 3 1 2 1
gene 1 3 2 1 2 1
gene 3 2 2 2 2 1
gene 2 3 2 22 2 1
gene 3 1 1 38 1 1
genomeend 137

/* Organism #138 Fitness: 0.164399 Error: 0 */
genomestart 138
node 1 0 2 0
node 2 0 0 3
node 3 1 0 1
gene 1 3 2 1 2 1
gene 3 2 2 2 2 1
gene 3 1 1 38 1 1
gene 2 3 4 58 4 1
genomeend 138

/* Organism #139 Fitness: 0.166667 Error: 0 */
genomestart 139
node 1 0 1 3
node 2 0 0 0
node 3 1 0 1
gene 1 3 3 1 3 1
gene 3 2 1 2 1 1
gene 3 1 2 19 2 1
gene 2 3 2 58 2 1
genomeend 139

/* Organism #140 Fitness: 0.166667 Error: 0 */
genomestart 140
node 1 0 3 4
node 2 0 3 0
node 3 1 0 2
gene 1 3 2 1 2 1
gene 3 2 2 2 2 1
gene 3 1 2 38 2 1
gene 2 3 3 58 3 1
genomeend 140

/* Organism #141 Fitness: 0.166667 Error: 0 */
genomestart 141
node 1 0 1 2
node 2 0 3 3
node 3 1 2 3
gene 1 3 3 1 3 1
gene 3 2 1 2 1 1
gene 3 1 2 19 2 1
gene 2 3 2 58 2 1
genomeend 141

/* Organism #142 Fitness: 0.166667 Error: 0 */
genomestart 142
node 1 0 2 1
node 2 0 2 3
node 3 1 2 0
gene 1 3 2 1 2 1
gene 3 2 1 2 1 1
gene 2 3 3 3 3 1
gene 3 1 1 19 1 1
genomeend 142

/* Organism #143 Fitness: 0.149071 Error: 0 */
genomestart 143
node 1 0 3 3
node 2 0 1 1
node 3 1 3 0
gene 1 3 2 1 2 1
gene 3 2 2 2 2 1
gene 2 3 1 22 1 1
gene 3 1 1 38 1 1
genomeend 143

/* Organism #144 Fitness: 0.0232558 Error: 0 */
genomestart 144
node 1 0 2 1
node 2 0 0 3
node 3 1 3 5
node 216 1 3 2
node 217 0 1 2
node 218 1 1 0
gene 1 3 3 1 3 1
gene 3 2 1 2 1 1
gene 3 1 1 19 1 1
gene 2 3 3 39 3 1
gene 218 216 2 358 2 1
gene 2 218 0 358 0 1
gene 216 217 0 358 0 1
gene 2 216 0 358 0 1
genomeend 144

/* Organism #145 Fitness: 0.166667 Error: 0 */
genomestart 145
node 1 0 2 5
node 2 0 0 1
node 3 1 1 3
gene 1 3 2 1 2 1
gene 3 2 2 2 2 1
gene 3 1 2 38 2 1
gene 2 3 3 58 3 1
genomeend 145

/* Organism #146 Fitness: 0.1 Error: 0 */
genomestart 146
node 1 0 1 5
node 2 0 2 2
node 3 1 3 2
gene 1 3 2 1 2 1
gene 3 2 2 2 2 1
gene 2 3 2 22 2 1
gene 3 1 1 38 1 1
genomeend 146

/* Organism #147 Fitness: 0.166667 Error: 0 */
genomestart 147
node 1 0 1 5
node 2 0 3 0
node 3 1 0 0
gene 1 3 1 1 1 1
gene 3 2 1 2 1 1
gene 2 3 2 22 2 1
gene 3 1 1 38 1 1
genomeend 147

/* Organism #148 Fitness: 0.166667 Error: 0 */
genomestart 148
node 1 0 3 5
node 2 0 2 0
node 3 1 3 1
gene 1 3 3 1 3 1
gene 3 2 1 2 1 1
gene 3 1 2 19 2 1
gene 2 3 3 39 3 1
genomeend 148

/* Organism #149 Fitness: 0.166667 Error: 0 */
genomestart 149
node 1 0 0 3
node 2 0 3 4
node 3 1 0 4
gene 1 3 2 1 2 1
gene 3 2 1 2 1 1
gene 2 3 3 3 3 1
gene 3 1 1 19 1 1
genomeend 149

/* Organism #150 Fitness: 0.166667 Error: 0 */
genomestart 150
node 1 0 1 3
node 2 0 1 0
node 3 1 0 0
gene 1 3 1 1 1 1
gene 3 2 1 2 1 1
gene 2 3 2 3 2 1
gene 3 1 1 19 1 1
genomeend 150

/* Organism #151 Fitness: 0.166667 Error: 0 */
genomestart 151
node 1 0 2 2
node 2 0 3 1
node 3 1 2 0
gene 1 3 3 1 3 1
gene 3 2 1 2 1 1
gene 3 1 2 19 2 1
gene 2 3 2 58 2 1
genomeend 151

/* Organism #152 Fitness: 0.125 Error: 0 */
genomestart 152
node 1 0 3 5
node 2 0 3 5
node 3 1 0 0
gene 1 3 1 1 1 1
gene 3 2 1 2 1 1
gene 2 3 2 22 2 1
gene 3 1 1 38 1 1
genomeend 152

/* Organism #153 Fitness: 0.25 Error: 0 */
genomestart 153
node 1 0 3 1
node 2 0 2 2
node 3 1 1 1
gene 1 3 2 1 2 1
gene 3 2 2 2 2 1
gene 3 1 2 38 2 1
gene 2 3 3 58 3 1
genomeend 153

/* Organism #154 Fitness: 0.166667 Error: 0 */
genomestart 154
node 1 0 3 5
node 2 0 0 4
node 3 1 0 3
gene 1 3 2 1 2 1
gene 3 2 2 2 2 1
gene 2 3 2 22 2 1
gene 3 1 1 38 1 1
genomeend 154

/* Organism #155 Fitness: 0.2 Error: 0 */
genomestart 155
node 1 0 0 1
node 2 0 2 2
node 3 1 1 4
node 122 1 1 2
node 123 0 3 1
node 124 1 1 2
gene 1 3 2 1 2 1
gene 3 2 1 2 1 1
gene 124 122 1 101 1 1
gene 1 124 1 101 1 1
gene 122 123 1 101 1 1
gene 1 122 1 101 1 1
gene 124 1 1 233 1 1
genomeend 155

/* Organism #156 Fitness: 0.166667 Error: 0 */
genomestart 156
node 1 0 1 0
node 2 0 2 1
node 3 1 2 3
node 122 1 0 3
node 123 0 3 0
node 124 1 1 1
gene 1 3 2 1 2 1
gene 3 2 1 2 1 1
gene 124 122 1 101 1 1
gene 1 124 1 101 1 1
gene 122 123 1 101 1 1
gene 1 122 3 101 3 1
gene 122 2 1 176 1 1
genomeend 156

/* Organism #157 Fitness: 0.166667 Error: 0 */
genomestart 157
node 1 0 2 5
node 2 0 1 0
node 3 1 2 2
gene 1 3 2 1 2 1
gene 3 2 1 2 1 1
gene 3 1 1 4 1 1
gene 2 3 2 39 2 1
genomeend 157

/* Organism #158 Fitness: 0.166667 Error: 0 */
genomestart 158
node 1 0 3 4
node 2 0 0 0
node 3 1 2 0
gene 1 3 1 1 1 1
gene 3 2 1 2 1 1
gene 3 1 2 38 2 1
gene 2 3 3 58 3 1
genomeend 158

/* Organism #159 Fitness: 0.166667 Error: 0 */
genomestart 159
node 1 0 3 4
node 2 0 1 0
node 3 1 0 0
gene 1 3 2 1 2 1
gene 3 2 1 2 1 1
gene 3 1 1 4 1 1
gene 2 3 2 39 2 1
genomeend 159

/* Organism #160 Fitness: 0.166667 Error: 0 */
genomestart 160
node 1 0 3 3
node 2 0 2 5
node 3 1 1 5
gene 1 3 1 1 1 1
gene 3 2 1 2 1 1
gene 3 1 2 38 2 1
gene 2 3 2 58 2 1
genomeend 160

/* Organism #161 Fitness: 0.166667 Error: 0 */
genomestart 161
node 1 0 1 3
node 2 0 1 5
node 3 1 2 3
gene 1 3 2 1 2 1
gene 3 2 1 2 1 1
gene 3 1 2 38 2 1
gene 2 3 2 58 2 1
genomeend 161

/* Organism #162 Fitness: 0.25 Error: 0 */
genomestart 162
node 1 0 2 3
node 2 0 2 0
node 3 1 3 3
gene 1 3 2 1 2 1
gene 3 2 1 2 1 1
gene 3 1 3 38 3 1
gene 2 3 3 58 3 1
genomeend 162

/* Organism #163 Fitness: 0.166667 Error: 0 */
genomestart 163
node 1 0 3 1
node 2 0 3 4
node 3 1 0 5
gene 1 3 2 1 2 1
gene 3 2 1 2 1 1
gene 3 1 3 38 3 1
gene 2 3 3 58 3 1
genomeend 163

/* Organism #164 Fitness: 0.166667 Error: 0 */
genomestart 164
node 1 0 3 3
node 2 0 3 1
node 3 1 3 1
gene 1 3 2 1 2 1
gene 3 2 2 2 2 1
gene 3 1 2 38 2 1
gene 2 3 3 58 3 1
genomeend 164

/* Organism #165 Fitness: 0.166667 Error: 0 */
genomestart 165
node 1 0 0 5
node 2 0 2 1
node 3 1 2 5
gene 1 3 3 1 3 1
gene 3 2 1 2 1 1
gene 3 1 3 38 3 1
gene 2 3 4 58 4 1
genomeend 165

/* Organism #166 Fitness: 0.25 Error: 0 */
genomestart 166
node 1 0 0 5
node 2 0 0 5
node 3 1 1 1
gene 1 3 2 1 2 1
gene 3 2 1 2 1 1
gene 3 1 1 4 1 1
gene 2 3 2 39 2 1
genomeend 166

/* Organism #167 Fitness: 0.125 Error: 0 */
genomestart 167
node 1 0 2 5
node 2 0 2 5
node 3 1 1 4
gene 1 3 2 1 2 1
gene 3 2 1 2 1 1
gene 3 1 3 38 3 1
gene 2 3 3 58 3 1
genomeend 167

/* Organism #168 Fitness: 0.164399 Error: 0 */
genomestart 168
node 1 0 2 3
node 2 0 3 3
node 3 1 3 0
node 82 1 1 2
node 83 0 0 0
node 84 1 2 4
gene 1 3 2 1 2 1
gene 3 2 1 2 1 1
gene 2 3 1 22 1 1
gene 84 82 1 67 1 1
gene 1 84 2 67 2 1
gene 82 83 3 67 3 1
gene 1 82 1 67 1 1
genomeend 168

/* Organism #169 Fitness: 0.164399 Error: 0 */
genomestart 169
node 1 0 3 5
node 2 0 2 1
node 3 1 0 2
node 82 1 1 3
node 83 0 0 0
node 84 1 2 1
gene 1 3 2 1 2 1
gene 3 2 1 2 1 1
gene 2 3 1 22 1 1
gene 84 82 1 67 1 1
gene 1 84 1 67 1 1
gene 82 83 1 67 1 1
gene 1 82 2 67 2 1
genomeend 169

/* Organism #170 Fitness: 0.166667 Error: 0 */
genomestart 170
node 1 0 3 4
node 2 0 1 4
node 3 1 3 4
gene 1 3 1 1 1 1
gene 3 2 1 2 1 1
gene 2 3 1 22 1 1
gene 3 1 2 38 2 1
genomeend 170

/* Organism #171 Fitness: 0.447214 Error: 0 */
genomestart 171
node 1 0 1 0
node 2 0 1 5
node 3 1 3 4
node 139 1 3 0
node 140 0 1 3
node 141 1 0 2
gene 1 3 2 1 2 1
gene 3 2 1 2 1 1
gene 2 3 2 22 2 1
gene 3 1 3 38 3 1
gene 141 139 1 138 1 1
gene 1 141 1 138 1 1
gene 139 140 2 138 2 1
gene 1 139 1 138 1 1
genomeend 171

/* Organism #172 Fitness: 0.142857 Error: 0 */
genomestart 172
node 1 0 3 3
node 2 0 3 3
node 3 1 2 2
node 139 1 0 1
node 140 0 1 3
node 141 1 0 2
gene 1 3 2 1 2 1
gene 3 2 1 2 1 1
gene 2 3 1 22 1 1
gene 3 1 3 38 3 1
gene 141 139 2 138 2 1
gene 1 141 3 138 3 1
gene 139 140 2 138 2 1
gene 1 139 1 138 1 1
genomeend 172

/* Organism #173 Fitness: 0.121268 Error: 0 */
genomestart 173
node 1 0 0 2
node 2 0 1 3
node 3 1 0 4
node 139 1 0 0
node 140 0 2 5
node 141 1 2 2
gene 1 3 2 1 2 1
gene 3 2 1 2 1 1
gene 2 3 2 22 2 1
gene 3 1 3 38 3 1
gene 141 139 1 138 1 1
gene 1 141 1 138 1 1
gene 139 140 2 138 2 1
gene 1 139 1 138 1 1
genomeend 173

/* Organism #174 Fitness: 0.166667 Error: 0 */
genomestart 174
node 1 0 2 1
node 2 0 0 3
node 3 1 2 0
node 139 1 3 5
node 140 0 3 3
node 141 1 2 0
gene 1 3 2 1 2 1
gene 3 2 1 2 1 1
gene 2 3 1 22 1 1
gene 3 1 3 38 3 1
gene 141 139 1 138 1 1
gene 1 141 1 138 1 1
gene 139 140 2 138 2 1
gene 1 139 2 138 2 1
genomeend 174

/* Organism #175 Fitness: 0.141421 Error: 0 */
genomestart 175
node 1 0 2 3
node 2 0 2 5
node 3 1 2 2
node 139 1 3 5
node 140 0 1 4
node 141 1 3 2
gene 1 3 2 1 2 1
gene 3 2 1 2 1 1
gene 2 3 2 22 2 1
gene 3 1 3 38 3 1
gene 141 139 1 138 1 1
gene 1 141 2 138 2 1
gene 139 140 3 138 3 1
gene 1 139 1 138 1 1
genomeend 175

/* Organism #176 Fitness: 0.2 Error: 0 */
genomestart 176
node 1 0 3 1
node 2 0 2 0
node 3 1 3 5
node 131 1 1 4
node 132 0 0 2
node 133 1 1 3
gene 1 3 2 1 2 1
gene 3 2 1 2 1 1
gene 2 3 1 96 1 1
gene 133 131 1 111 1 1
gene 1 133 1 111 1 1
gene 131 132 1 111 1 1
gene 1 131 1 111 1 1
genomeend 176

/* Organism #177 Fitness: 0.164399 Error: 0 */
genomestart 177
node 1 0 1 1
node 2 0 3 3
node 3 1 0 5
node 131 1 2 2
node 132 0 0 1
node 133 1 3 5
gene 1 3 2 1 2 1
gene 3 2 1 2 1 1
gene 2 3 2 96 2 1
gene 133 131 1 111 1 1
gene 1 133 2 111 2 1
gene 131 132 1 111 1 1
gene 1 131 1 111 1 1
genomeend 177

/* Organism #178 Fitness: 0.2 Error: 0 */
genomestart 178
node 1 0 2 1
node 2 0 2 1
node 3 1 0 5
node 131 1 0 3
node 132 0 1 4
node 133 1 2 3
gene 1 3 2 1 2 1
gene 3 2 1 2 1 1
gene 2 3 1 96 1 1
gene 133 131 1 111 1 1
gene 1 133 1 111 1 1
gene 131 132 1 111 1 1
gene 1 131 1 111 1 1
gene 132 133 1 405 1 1
genomeend 178

/* Organism #179 Fitness: 0.2 Error: 0 */
genomestart 179
node 1 0 1 4
node 2 0 3 2
node 3 1 3 5
gene 1 3 2 1 2 1
gene 3 2 1 2 1 1
gene 2 3 5 22 5 1
gene 3 1 1 145 1 1
genomeend 179

/* Organism #180 Fitness: 0.142857 Error: 0 */
genomestart 180
node 1 0 0 5
node 2 0 3 4
node 3 1 1 5
node 131 1 2 5
node 132 0 0 2
node 133 1 1 2
gene 1 3 2 1 2 1
gene 3 2 1 2 1 1
gene 2 3 1 96 1 1
gene 133 131 1 111 1 1
gene 1 133 1 111 1 1
gene 131 132 1 111 1 1
gene 1 131 1 111 1 1
gene 131 2 1 410 1 1
genomeend 180

/* Organism #181 Fitness: 0.196116 Error: 0 */
genomestart 181
node 1 0 3 1
node 2 0 2 2
node 3 1 3 5
node 131 1 2 5
node 132 0 1 4
node 133 1 1 4
gene 1 3 2 1 2 1
gene 3 2 1 2 1 1
gene 2 3 1 96 1 1
gene 133 131 1 111 1 1
gene 1 133 1 111 1 1
gene 131 132 1 111 1 1
gene 1 131 1 111 1 1
gene 132 131 2 411 2 1
genomeend 181

/* Organism #182 Fitness: 0.124035 Error: 0 */
genomestart 182
node 1 0 0 3
node 2 0 2 2
node 3 1 3 5
node 28 1 1 1
node 29 0 1 5
node 30 1 2 4
gene 1 3 2 1 2 1
gene 3 2 1 2 1 1
gene 2 3 3 3 3 1
gene 30 28 2 20 2 1
gene 2 30 1 20 1 1
gene 28 29 2 20 2 1
gene 2 28 2 20 2 1
gene 28 2 1 156 1 1
gene 29 30 1 224 1 1
genomeend 182

/* Organism #183 Fitness: 0.166667 Error: 0 */
genomestart 183
node 1 0 2 1
node 2 0 3 1
node 3 1 1 5
gene 1 3 1 1 1 1
gene 3 2 1 2 1 1
gene 2 3 5 22 5 1
gene 3 1 2 145 2 1
genomeend 183

/* Organism #184 Fitness: 0.142857 Error: 0 */
genomestart 184
node 1 0 1 2
node 2 0 0 3
node 3 1 0 3
gene 1 3 1 1 1 1
gene 3 2 1 2 1 1
gene 2 3 5 22 5 1
gene 3 1 2 145 2 1
genomeend 184

/* Organism #185 Fitness: 0.166667 Error: 0 */
genomestart 185
node 1 0 2 1
node 2 0 2 4
node 3 1 3 2
gene 1 3 1 1 1 1
gene 3 2 1 2 1 1
gene 2 3 4 3 4 1
gene 3 1 1 19 1 1
genomeend 185

/* Organism #186 Fitness: 0.166667 Error: 0 */
genomestart 186
node 1 0 2 1
node 2 0 2 0
node 3 1 3 2
gene 1 3 1 1 1 1
gene 3 2 1 2 1 1
gene 2 3 5 22 5 1
gene 3 1 3 145 3 1
genomeend 186

/* Organism #187 Fitness: 0.166667 Error: 0 */
genomestart 187
node 1 0 1 4
node 2 0 2 2
node 3 1 2 2
gene 1 3 1 1 1 1
gene 3 2 1 2 1 1
gene 2 3 4 3 4 1
gene 3 1 1 19 1 1
genomeend 187

/* Organism #188 Fitness: 0.166667 Error: 0 */
genomestart 188
node 1 0 2 4
node 2 0 0 4
node 3 1 0 2
gene 1 3 1 1 1 1
gene 3 2 1 2 1 1
gene 2 3 5 22 5 1
gene 3 1 2 145 2 1
genomeend 188

/* Organism #189 Fitness: 0.166667 Error: 0 */
genomestart 189
node 1 0 2 3
node 2 0 2 4
node 3 1 2 1
gene 1 3 1 1 1 1
gene 3 2 1 2 1 1
gene 2 3 5 22 5 1
gene 3 1 2 145 2 1
genomeend 189

/* Organism #190 Fitness: 0.25 Error: 0 */
genomestart 190
node 1 0 3 1
node 2 0 0 1
node 3 1 1 0
gene 1 3 1 1 1 1
gene 3 2 1 2 1 1
gene 2 3 3 22 3 1
gene 3 1 2 145 2 1
genomeend 190

/* Organism #191 Fitness: 0.25 Error: 0 */
genomestart 191
node 1 0 3 2
node 2 0 1 0
node 3 1 1 0
gene 1 3 1 1 1 1
gene 3 2 1 2 1 1
gene 3 1 3 38 3 1
gene 2 3 3 58 3 1
genomeend 191

/* Organism #192 Fitness: 0.0178571 Error: 0 */
genomestart 192
node 1 0 2 3
node 2 0 0 2
node 3 1 0 2
gene 1 3 1 1 1 1
gene 3 2 1 2 1 1
gene 3 1 1 4 1 1
gene 2 3 1 39 1 1
genomeend 192

/* Organism #193 Fitness: 0.0198575 Error: 0 */
genomestart 193
node 1 0 0 0
node 2 0 0 4
node 3 1 0 0
gene 1 3 1 1 1 1
gene 3 2 1 2 1 1
gene 3 1 1 4 1 1
gene 2 3 1 39 1 1
genomeend 193

/* Organism #194 Fitness: 0.166667 Error: 0 */
genomestart 194
node 1 0 2 1
node 2 0 3 2
node 3 1 0 3
gene 1 3 1 1 1 1
gene 3 2 1 2 1 1
gene 2 3 5 22 5 1
gene 3 1 3 145 3 1
genomeend 194

/* Organism #195 Fitness: 0.166667 Error: 0 */
genomestart 195
node 1 0 1 0
node 2 0 0 4
node 3 1 0 3
node 125 1 3 2
node 126 0 3 0
node 127 1 0 0
gene 1 3 2 1 2 1
gene 3 2 1 2 1 1
gene 3 1 1 4 1 1
gene 2 3 1 22 1 1
gene 127 125 2 107 2 1
gene 2 127 2 107 2 1
gene 125 126 1 107 1 1
gene 2 125 2 107 2 1
genomeend 195

/* Organism #196 Fitness: 0.142857 Error: 0 */
genomestart 196
node 1 0 2 0
node 2 0 2 5
node 3 1 0 3
node 125 1 1 3
node 126 0 0 5
node 127 1 2 0
gene 1 3 2 1 2 1
gene 3 2 1 2 1 1
gene 3 1 1 4 1 1
gene 2 3 1 22 1 1
gene 127 125 3 107 3 1
gene 2 127 2 107 2 1
gene 125 126 1 107 1 1
gene 2 125 1 107 1 1
genomeend 196

/* Organism #197 Fitness: 0.164399 Error: 0 */
genomestart 197
node 1 0 1 0
node 2 0 2 5
node 3 1 1 4
node 125 1 3 2
node 126 0 0 2
node 127 1 1 3
gene 1 3 2 1 2 1
gene 3 2 1 2 1 1
gene 3 1 1 4 1 1
gene 2 3 1 22 1 1
gene 127 125 2 107 2 1
gene 2 127 2 107 2 1
gene 125 126 1 107 1 1
gene 2 125 3 107 3 1
genomeend 197

/* Organism #198 Fitness: 0.25 Error: 0 */
genomestart 198
node 1 0 2 0
node 2 0 0 3
node 3 1 0 5
node 125 1 1 5
node 126 0 2 5
node 127 1 2 1
gene 1 3 2 1 2 1
gene 3 2 1 2 1 1
gene 3 1 1 4 1 1
gene 2 3 1 22 1 1
gene 127 125 2 107 2 1
gene 2 127 2 107 2 1
gene 125 126 1 107 1 1
gene 2 125 2 107 2 1
genomeend 198

/* Organism #199 Fitness: 0.223607 Error: 0 */
genomestart 199
node 1 0 3 0
node 2 0 1 2
node 3 1 0 2
node 125 1 2 5
node 126 0 0 0
node 127 1 3 4
gene 1 3 2 1 2 1
gene 3 2 1 2 1 1
gene 3 1 1 4 1 1
gene 2 3 1 22 1 1
gene 127 125 2 107 2 1
gene 2 127 2 107 2 1
gene 125 126 2 107 2 1
gene 2 125 3 107 3 1
genomeend 199

/* Organism #200 Fitness: 0.196116 Error: 0 */
genomestart 200
node 1 0 3 5
node 2 0 2 1
node 3 1 3 1
node 125 1 3 1
node 126 0 2 5
node 127 1 1 5
gene 1 3 2 1 2 1
gene 3 2 1 2 1 1
gene 3 1 1 4 1 1
gene 2 3 1 22 1 1
gene 127 125 2 107 2 1
gene 2 127 2 107 2 1
gene 125 126 1 107 1 1
gene 2 125 2 107 2 1
genomeend 200

/* Organism #201 Fitness: 0.166667 Error: 0 */
genomestart 201
node 1 0 3 1
node 2 0 2 5
node 3 1 2 4
node 125 1 0 3
node 126 0 2 2
node 127 1 0 5
gene 1 3 2 1 2 1
gene 3 2 1 2 1 1
gene 3 1 2 4 2 1
gene 2 3 1 22 1 1
gene 127 125 2 107 2 1
gene 2 127 1 107 1 1
gene 125 126 1 107 1 1
gene 2 125 1 107 1 1
genomeend 201

/* Organism #202 Fitness: 0.141421 Error: 0 */
genomestart 202
node 1 0 1 4
node 2 0 1 4
node 3 1 1 4
node 125 1 2 2
node 126 0 1 1
node 127 1 2 0
gene 1 3 2 1 2 1
gene 3 2 1 2 1 1
gene 3 1 1 4 1 1
gene 2 3 1 22 1 1
gene 127 125 2 107 2 1
gene 2 127 1 107 1 1
gene 125 126 1 107 1 1
gene 2 125 2 107 2 1
genomeend 202

/* Organism #203 Fitness: 0.164399 Error: 0 */
genomestart 203
node 1 0 0 1
node 2 0 2 3
node 3 1 3 1
node 125 1 2 0
node 126 0 2 5
node 127 1 2 4
gene 1 3 2 1 2 1
gene 3 2 1 2 1 1
gene 3 1 1 4 1 1
gene 2 3 1 22 1 1
gene 127 125 2 107 2 1
gene 2 127 2 107 2 1
gene 125 126 1 107 1 1
gene 2 125 3 107 2 1
genomeend 203

/* Organism #204 Fitness: 0.166667 Error: 0 */
genomestart 204
node 1 0 2 0
node 2 0 2 3
node 3 1 1 5
gene 1 3 2 1 2 1
gene 3 2 2 2 2 1
gene 3 1 1 38 1 1
gene 2 3 3 58 3 1
genomeend 204

/* Organism #205 Fitness: 0.0227273 Error: 0 */
genomestart 205
node 1 0 2 4
node 2 0 2 5
node 3 1 0 0
gene 1 3 2 1 2 1
gene 3 2 2 2 2 1
gene 3 1 2 38 2 1
gene 2 3 1 58 1 1
genomeend 205

/* Organism #206 Fitness: 0.166667 Error: 0 */
genomestart 206
node 1 0 1 3
node 2 0 1 0
node 3 1 1 4
gene 1 3 3 1 3 1
gene 3 2 1 2 1 1
gene 3 1 3 38 3 1
gene 2 3 2 58 2 1
genomeend 206

/* Organism #207 Fitness: 0.166667 Error: 0 */
genomestart 207
node 1 0 3 2
node 2 0 0 1
node 3 1 0 1
node 122 1 3 2
node 123 0 3 4
node 124 1 2 0
gene 1 3 2 1 2 1
gene 3 2 1 2 1 1
gene 124 122 3 101 3 1
gene 1 124 4 101 4 1
gene 122 123 3 101 3 1
gene 1 122 3 101 3 1
gene 122 2 2 176 2 1
genomeend 207

/* Species #7 : (Size 59) (AF 0.17074) (Age 7)  */


/* Organism #208 Fitness: 0.166667 Error: 0 */
genomestart 208
node 1 0 3 2
node 2 0 2 3
node 3 1 1 4
gene 1 3 4 1 4 1
gene 3 2 2 2 2 1
gene 2 3 1 58 1 1
gene 3 1 1 145 1 1
genomeend 208

/* Organism #209 Fitness: 0.141421 Error: 0 */
genomestart 209
node 1 0 0 4
node 2 0 3 4
node 3 1 1 0
node 152 1 0 4
node 153 0 2 0
node 154 1 3 5
gene 1 3 4 1 4 1
gene 3 2 2 2 2 1
gene 3 1 1 4 1 1
gene 2 3 1 39 1 1
gene 154 152 2 165 2 1
gene 1 154 1 165 1 1
gene 152 153 2 165 2 1
gene 1 152 1 165 1 1
genomeend 209

/* Organism #210 Fitness: 0.158114 Error: 0 */
genomestart 210
node 1 0 2 1
node 2 0 2 5
node 3 1 3 5
node 152 1 0 4
node 153 0 1 4
node 154 1 3 4
gene 1 3 4 1 4 1
gene 3 2 3 2 3 1
gene 3 1 1 4 1 1
gene 2 3 1 39 1 1
gene 154 152 1 165 1 1
gene 1 154 2 165 2 1
gene 152 153 1 165 1 1
gene 1 152 1 165 1 1
genomeend 210

/* Organism #211 Fitness: 0.2 Error: 0 */
genomestart 211
node 1 0 1 3
node 2 0 0 0
node 3 1 3 0
gene 1 3 4 1 4 1
gene 3 2 2 2 2 1
gene 2 3 1 58 1 1
gene 3 1 1 145 1 1
genomeend 211

/* Organism #212 Fitness: 0.242536 Error: 0 */
genomestart 212
node 1 0 0 5
node 2 0 3 1
node 3 1 2 4
node 152 1 0 3
node 153 0 0 0
node 154 1 0 4
gene 1 3 4 1 4 1
gene 3 2 2 2 2 1
gene 3 1 1 4 1 1
gene 2 3 1 39 1 1
gene 154 152 2 165 2 1
gene 1 154 1 165 1 1
gene 152 153 2 165 2 1
gene 1 152 1 165 1 1
gene 154 2 0 361 0 1
genomeend 212

/* Organism #213 Fitness: 0.166667 Error: 0 */
genomestart 213
node 1 0 0 0
node 2 0 3 1
node 3 1 3 0
gene 1 3 4 1 4 1
gene 3 2 2 2 2 1
gene 3 1 2 19 2 1
gene 2 3 2 58 2 1
genomeend 213

/* Organism #214 Fitness: 0.164399 Error: 0 */
genomestart 214
node 1 0 3 0
node 2 0 1 0
node 3 1 3 1
node 152 1 0 4
node 153 0 3 0
node 154 1 0 5
gene 1 3 4 1 4 1
gene 3 2 2 2 2 1
gene 3 1 1 4 1 1
gene 2 3 1 39 1 1
gene 154 152 2 165 2 1
gene 1 154 1 165 1 1
gene 152 153 2 165 2 1
gene 1 152 1 165 1 1
gene 153 154 0 362 0 1
genomeend 214

/* Organism #215 Fitness: 0.242536 Error: 0 */
genomestart 215
node 1 0 0 2
node 2 0 2 5
node 3 1 2 4
node 152 1 0 3
node 153 0 3 0
node 154 1 3 5
gene 1 3 4 1 4 1
gene 3 2 2 2 2 1
gene 3 1 1 4 1 1
gene 2 3 1 39 1 1
gene 154 152 2 165 2 1
gene 1 154 1 165 1 1
gene 152 153 1 165 1 1
gene 1 152 1 165 1 1
genomeend 215

/* Organism #216 Fitness: 0.166667 Error: 0 */
genomestart 216
node 1 0 1 3
node 2 0 0 0
node 3 1 1 1
gene 1 3 4 1 4 1
gene 3 2 2 2 2 1
gene 2 3 2 22 2 1
gene 3 1 2 59 2 1
genomeend 216

/* Organism #217 Fitness: 0.149071 Error: 0 */
genomestart 217
node 1 0 1 3
node 2 0 0 3
node 3 1 3 0
node 152 1 3 2
node 153 0 2 5
node 154 1 3 2
gene 1 3 5 1 5 1
gene 3 2 1 2 1 1
gene 3 1 1 4 1 1
gene 2 3 1 39 1 1
gene 154 152 2 165 2 1
gene 1 154 1 165 1 1
gene 152 153 1 165 1 1
gene 1 152 2 165 2 1
gene 152 2 1 296 1 1
genomeend 217

/* Organism #218 Fitness: 0.142857 Error: 0 */
genomestart 218
node 1 0 2 1
node 2 0 2 5
node 3 1 0 1
node 152 1 0 4
node 153 0 0 0
node 154 1 3 1
gene 1 3 5 1 5 1
gene 3 2 3 2 3 1
gene 3 1 2 4 2 1
gene 2 3 1 39 1 1
gene 154 152 2 165 2 1
gene 1 154 2 165 2 1
gene 152 153 2 165 2 1
gene 1 152 1 165 1 1
gene 152 2 2 296 2 1
genomeend 218

/* Organism #219 Fitness: 0.166667 Error: 0 */
genomestart 219
node 1 0 3 5
node 2 0 3 1
node 3 1 1 1
node 152 1 3 2
node 153 0 1 1
node 154 1 1 5
gene 1 3 5 1 5 1
gene 3 2 1 2 1 1
gene 3 1 2 4 2 1
gene 2 3 1 39 1 1
gene 154 152 1 165 1 1
gene 1 154 1 165 1 1
gene 152 153 3 165 3 1
gene 1 152 1 165 1 1
genomeend 219

/* Organism #220 Fitness: 0.166667 Error: 0 */
genomestart 220
node 1 0 0 1
node 2 0 1 5
node 3 1 0 0
node 152 1 2 4
node 153 0 0 2
node 154 1 3 2
gene 1 3 5 1 5 1
gene 3 2 2 2 2 1
gene 3 1 2 4 2 1
gene 2 3 1 39 1 1
gene 154 152 2 165 2 1
gene 1 154 1 165 1 1
gene 152 153 1 165 1 1
gene 1 152 2 165 2 1
gene 152 2 2 296 2 1
genomeend 220

/* Organism #221 Fitness: 0.141421 Error: 0 */
genomestart 221
node 1 0 2 0
node 2 0 1 0
node 3 1 2 4
node 152 1 2 3
node 153 0 3 0
node 154 1 2 3
gene 1 3 5 1 5 1
gene 3 2 2 2 2 1
gene 3 1 2 4 2 1
gene 2 3 1 39 1 1
gene 154 152 1 165 1 1
gene 1 154 1 165 1 1
gene 152 153 2 165 2 1
gene 1 152 1 165 1 1
gene 153 3 0 435 0 1
genomeend 221

/* Organism #222 Fitness: 0.196116 Error: 0 */
genomestart 222
node 1 0 3 0
node 2 0 2 0
node 3 1 0 5
node 152 1 2 4
node 153 0 0 4
node 154 1 1 0
gene 1 3 5 1 5 1
gene 3 2 1 2 1 1
gene 3 1 1 4 1 1
gene 2 3 1 39 1 1
gene 154 152 2 165 2 1
gene 1 154 1 165 1 1
gene 152 153 1 165 1 1
gene 1 152 2 165 2 1
gene 152 2 1 296 1 1
gene 153 154 0 362 0 1
genomeend 222

/* Organism #223 Fitness: 0.164399 Error: 0 */
genomestart 223
node 1 0 3 1
node 2 0 3 0
node 3 1 0 3
node 152 1 1 4
node 153 0 0 5
node 154 1 0 2
gene 1 3 5 1 5 1
gene 3 2 2 2 2 1
gene 3 1 2 4 2 1
gene 2 3 1 39 1 1
gene 154 152 1 165 1 1
gene 1 154 1 165 1 1
gene 152 153 2 165 2 1
gene 1 152 1 165 1 1
genomeend 223

/* Organism #224 Fitness: 0.124035 Error: 0 */
genomestart 224
node 1 0 0 0
node 2 0 3 1
node 3 1 0 4
node 152 1 3 4
node 153 0 3 1
node 154 1 0 4
gene 1 3 4 1 4 1
gene 3 2 3 2 3 1
gene 3 1 2 4 2 1
gene 2 3 1 39 1 1
gene 154 152 1 165 1 1
gene 1 154 1 165 1 1
gene 152 153 2 165 2 1
gene 1 152 1 165 1 1
gene 154 153 2 294 2 1
gene 3 153 2 436 2 1
genomeend 224

/* Organism #225 Fitness: 0.166667 Error: 0 */
genomestart 225
node 1 0 2 5
node 2 0 3 3
node 3 1 0 0
node 152 1 2 5
node 153 0 3 1
node 154 1 2 2
gene 1 3 5 1 5 1
gene 3 2 2 2 2 1
gene 3 1 1 4 1 1
gene 2 3 1 39 1 1
gene 154 152 2 165 2 1
gene 1 154 2 165 2 1
gene 152 153 2 165 2 1
gene 1 152 3 165 3 1
gene 152 2 1 296 1 1
genomeend 225

/* Organism #226 Fitness: 0.141421 Error: 0 */
genomestart 226
node 1 0 0 5
node 2 0 2 5
node 3 1 3 2
node 152 1 3 2
node 153 0 3 2
node 154 1 3 4
gene 1 3 5 1 5 1
gene 3 2 2 2 2 1
gene 3 1 2 4 2 1
gene 2 3 1 39 1 1
gene 154 152 1 165 1 1
gene 1 154 1 165 1 1
gene 152 153 2 165 2 1
gene 1 152 1 165 1 1
gene 152 2 1 296 1 1
gene 152 1 1 437 1 1
genomeend 226

/* Organism #227 Fitness: 0.166667 Error: 0 */
genomestart 227
node 1 0 0 4
node 2 0 0 3
node 3 1 0 3
node 152 1 0 4
node 153 0 0 4
node 154 1 1 5
gene 1 3 5 1 5 1
gene 3 2 1 2 1 1
gene 3 1 2 4 2 1
gene 2 3 2 39 2 1
gene 154 152 1 165 1 1
gene 1 154 1 165 1 1
gene 152 153 1 165 1 1
gene 1 152 3 165 3 1
gene 152 2 1 296 1 1
genomeend 227

/* Organism #228 Fitness: 0.124035 Error: 0 */
genomestart 228
node 1 0 0 3
node 2 0 1 1
node 3 1 0 5
node 152 1 3 4
node 153 0 1 2
node 154 1 0 0
gene 1 3 4 1 4 1
gene 3 2 2 2 2 1
gene 3 1 2 4 2 1
gene 2 3 1 39 1 1
gene 154 152 1 165 1 1
gene 1 154 1 165 1 1
gene 152 153 3 165 3 1
gene 1 152 1 165 1 1
genomeend 228

/* Organism #229 Fitness: 0.141421 Error: 0 */
genomestart 229
node 1 0 2 4
node 2 0 2 0
node 3 1 1 3
node 152 1 0 4
node 153 0 1 0
node 154 1 1 0
gene 1 3 5 1 5 1
gene 3 2 3 2 3 1
gene 3 1 3 4 3 1
gene 2 3 1 39 1 1
gene 154 152 1 165 1 1
gene 1 154 2 165 2 1
gene 152 153 2 165 2 1
gene 1 152 1 165 1 1
gene 154 153 2 294 2 1
genomeend 229

/* Organism #230 Fitness: 0.2 Error: 0 */
genomestart 230
node 1 0 2 2
node 2 0 2 2
node 3 1 1 4
node 152 1 3 0
node 153 0 1 3
node 154 1 3 5
gene 1 3 5 1 5 1
gene 3 2 1 2 1 1
gene 3 1 2 4 2 1
gene 2 3 2 39 2 1
gene 154 152 1 165 1 1
gene 1 154 1 165 1 1
gene 152 153 3 165 3 1
gene 1 152 2 165 2 1
genomeend 230

/* Organism #231 Fitness: 0.141421 Error: 0 */
genomestart 231
node 1 0 1 0
node 2 0 1 0
node 3 1 1 2
node 152 1 3 0
node 153 0 0 1
node 154 1 2 4
gene 1 3 5 1 5 1
gene 3 2 2 2 2 1
gene 3 1 2 4 2 1
gene 2 3 1 39 1 1
gene 154 152 1 165 1 1
gene 1 154 1 165 1 1
gene 152 153 2 165 2 1
gene 1 152 1 165 1 1
gene 152 2 1 296 1 1
gene 153 152 1 438 1 1
genomeend 231

/* Organism #232 Fitness: 0.164399 Error: 0 */
genomestart 232
node 1 0 3 0
node 2 0 3 0
node 3 1 3 0
node 152 1 1 1
node 153 0 3 4
node 154 1 3 3
gene 1 3 3 1 3 1
gene 3 2 2 2 2 1
gene 3 1 1 4 1 1
gene 2 3 1 39 1 1
gene 154 152 1 165 1 1
gene 1 154 1 165 1 1
gene 152 153 2 165 2 1
gene 1 152 1 165 1 1
gene 154 153 1 294 1 1
genomeend 232

/* Organism #233 Fitness: 0.166667 Error: 0 */
genomestart 233
node 1 0 1 1
node 2 0 2 5
node 3 1 0 3
node 152 1 0 5
node 153 0 2 2
node 154 1 3 2
gene 1 3 5 1 5 1
gene 3 2 1 2 1 1
gene 3 1 1 4 1 1
gene 2 3 1 39 1 1
gene 154 152 2 165 2 1
gene 1 154 1 165 1 1
gene 152 153 1 165 1 1
gene 1 152 2 165 2 1
gene 152 2 1 296 1 1
gene 154 153 0 439 0 1
genomeend 233

/* Organism #234 Fitness: 0.164399 Error: 0 */
genomestart 234
node 1 0 0 1
node 2 0 0 0
node 3 1 1 4
node 152 1 1 3
node 153 0 1 3
node 154 1 0 4
gene 1 3 5 1 5 1
gene 3 2 2 2 2 1
gene 3 1 2 4 2 1
gene 2 3 1 39 1 1
gene 154 152 1 165 1 1
gene 1 154 1 165 1 1
gene 152 153 2 165 2 1
gene 1 152 1 165 1 1
gene 3 153 2 436 0 1
genomeend 234

/* Organism #235 Fitness: 0.166667 Error: 0 */
genomestart 235
node 1 0 2 1
node 2 0 3 5
node 3 1 0 4
node 152 1 2 5
node 153 0 2 4
node 154 1 2 5
gene 1 3 5 1 5 1
gene 3 2 3 2 3 1
gene 3 1 2 4 2 1
gene 2 3 1 39 1 1
gene 154 152 1 165 1 1
gene 1 154 2 165 2 1
gene 152 153 3 165 3 1
gene 1 152 1 165 1 1
genomeend 235

/* Organism #236 Fitness: 0.166667 Error: 0 */
genomestart 236
node 1 0 2 1
node 2 0 0 3
node 3 1 3 4
gene 1 3 4 1 4 1
gene 3 2 2 2 2 1
gene 3 1 3 38 3 1
gene 2 3 1 58 1 1
genomeend 236

/* Organism #237 Fitness: 0.137361 Error: 0 */
genomestart 237
node 1 0 2 1
node 2 0 2 2
node 3 1 2 4
node 152 1 0 2
node 153 0 2 4
node 154 1 3 3
gene 1 3 5 1 5 1
gene 3 2 1 2 1 1
gene 3 1 2 4 2 1
gene 2 3 2 39 2 1
gene 154 152 2 165 2 1
gene 1 154 1 165 1 1
gene 152 153 3 165 3 1
gene 1 152 1 165 1 1
gene 153 154 1 332 1 1
genomeend 237

/* Organism #238 Fitness: 0.149071 Error: 0 */
genomestart 238
node 1 0 0 1
node 2 0 0 4
node 3 1 2 1
node 152 1 1 5
node 153 0 1 4
node 154 1 1 2
gene 1 3 5 1 5 1
gene 3 2 2 2 2 1
gene 3 1 2 4 2 1
gene 2 3 3 39 3 1
gene 154 152 1 165 1 1
gene 1 154 1 165 1 1
gene 152 153 4 165 4 1
gene 1 152 2 165 2 1
gene 153 154 1 332 1 1
genomeend 238

/* Organism #239 Fitness: 0.166667 Error: 0 */
genomestart 239
node 1 0 3 5
node 2 0 3 4
node 3 1 0 0
node 152 1 3 1
node 153 0 1 0
node 154 1 2 1
gene 1 3 5 1 5 1
gene 3 2 1 2 1 1
gene 3 1 2 4 2 1
gene 2 3 2 39 2 1
gene 154 152 2 165 2 1
gene 1 154 1 165 1 1
gene 152 153 3 165 3 1
gene 1 152 1 165 1 1
gene 153 154 1 332 1 1
gene 152 2 0 480 0 1
genomeend 239

/* Organism #240 Fitness: 0.166667 Error: 0 */
genomestart 240
node 1 0 3 5
node 2 0 0 5
node 3 1 0 3
node 152 1 1 5
node 153 0 1 5
node 154 1 0 3
gene 1 3 5 1 5 1
gene 3 2 1 2 1 1
gene 3 1 2 4 2 1
gene 2 3 2 39 2 1
gene 154 152 2 165 2 1
gene 1 154 1 165 1 1
gene 152 153 3 165 3 1
gene 1 152 1 165 1 1
gene 153 154 2 332 2 1
genomeend 240

/* Organism #241 Fitness: 0.149071 Error: 0 */
genomestart 241
node 1 0 2 4
node 2 0 0 5
node 3 1 1 1
node 152 1 2 4
node 153 0 0 5
node 154 1 0 3
gene 1 3 5 1 5 1
gene 3 2 1 2 1 1
gene 3 1 2 4 2 1
gene 2 3 2 39 2 1
gene 154 152 2 165 2 1
gene 1 154 1 165 1 1
gene 152 153 3 165 3 1
gene 1 152 1 165 1 1
gene 153 154 1 332 1 1
gene 2 154 1 481 1 1
genomeend 241

/* Organism #242 Fitness: 0.242536 Error: 0 */
genomestart 242
node 1 0 3 0
node 2 0 2 1
node 3 1 3 3
node 152 1 2 0
node 153 0 2 1
node 154 1 0 5
gene 1 3 5 1 5 1
gene 3 2 1 2 1 1
gene 3 1 2 4 2 1
gene 2 3 2 39 2 1
gene 154 152 2 165 2 1
gene 1 154 1 165 1 1
gene 152 153 3 165 3 1
gene 1 152 1 165 1 1
gene 153 154 1 332 1 1
gene 152 2 0 480 0 1
genomeend 242

/* Organism #243 Fitness: 0.142857 Error: 0 */
genomestart 243
node 1 0 1 0
node 2 0 3 4
node 3 1 2 4
node 152 1 1 2
node 153 0 2 0
node 154 1 2 1
gene 1 3 5 1 5 1
gene 3 2 1 2 1 1
gene 3 1 2 4 2 1
gene 2 3 2 39 2 1
gene 154 152 2 165 2 1
gene 1 154 1 165 1 1
gene 152 153 3 165 3 1
gene 1 152 1 165 1 1
gene 153 154 1 332 1 1
gene 3 153 2 436 0 1
genomeend 243

/* Organism #244 Fitness: 0.166667 Error: 0 */
genomestart 244
node 1 0 3 0
node 2 0 0 0
node 3 1 2 5
node 152 1 3 4
node 153 0 3 3
node 154 1 3 5
gene 1 3 4 1 4 1
gene 3 2 1 2 1 1
gene 3 1 3 4 3 1
gene 2 3 2 39 2 1
gene 154 152 2 165 2 1
gene 1 154 1 165 1 1
gene 152 153 3 165 3 1
gene 1 152 2 165 2 1
gene 153 154 1 332 1 1
genomeend 244

/* Organism #245 Fitness: 0.164399 Error: 0 */
genomestart 245
node 1 0 0 4
node 2 0 2 4
node 3 1 3 2
node 152 1 1 1
node 153 0 2 5
node 154 1 3 2
gene 1 3 5 1 5 1
gene 3 2 1 2 1 1
gene 3 1 3 4 3 1
gene 2 3 2 39 2 1
gene 154 152 2 165 2 1
gene 1 154 1 165 1 1
gene 152 153 2 165 2 1
gene 1 152 1 165 1 1
gene 153 154 2 332 2 1
genomeend 245

/* Organism #246 Fitness: 0.142857 Error: 0 */
genomestart 246
node 1 0 0 5
node 2 0 0 5
node 3 1 0 1
node 152 1 3 1
node 153 0 0 5
node 154 1 2 3
gene 1 3 4 1 4 1
gene 3 2 1 2 1 1
gene 3 1 1 4 1 1
gene 2 3 2 39 2 1
gene 154 152 2 165 2 1
gene 1 154 1 165 1 1
gene 152 153 2 165 2 1
gene 1 152 1 165 1 1
gene 153 154 1 332 1 1
genomeend 246

/* Organism #247 Fitness: 0.164399 Error: 0 */
genomestart 247
node 1 0 2 4
node 2 0 2 1
node 3 1 0 4
node 152 1 1 0
node 153 0 1 4
node 154 1 3 1
gene 1 3 4 1 4 1
gene 3 2 1 2 1 1
gene 3 1 2 4 2 1
gene 2 3 1 39 1 1
gene 154 152 3 165 3 1
gene 1 154 1 165 1 1
gene 152 153 2 165 2 1
gene 1 152 1 165 1 1
gene 153 154 2 332 2 1
genomeend 247

/* Organism #248 Fitness: 0.166667 Error: 0 */
genomestart 248
node 1 0 3 5
node 2 0 3 0
node 3 1 3 1
node 152 1 1 0
node 153 0 0 5
node 154 1 0 3
gene 1 3 5 1 5 1
gene 3 2 1 2 1 1
gene 3 1 2 4 2 1
gene 2 3 2 39 2 1
gene 154 152 2 165 2 1
gene 1 154 2 165 1 1
gene 152 153 3 165 3 1
gene 1 152 1 165 1 1
gene 153 154 1 332 1 1
genomeend 248

/* Organism #249 Fitness: 0.2 Error: 0 */
genomestart 249
node 1 0 3 0
node 2 0 3 0
node 3 1 1 4
node 152 1 3 0
node 153 0 0 1
node 154 1 0 5
gene 1 3 4 1 4 1
gene 3 2 1 2 1 1
gene 3 1 2 4 2 1
gene 2 3 3 39 3 1
gene 154 152 1 165 1 1
gene 1 154 1 165 1 1
gene 152 153 2 165 2 1
gene 1 152 1 165 1 1
gene 153 154 1 332 1 1
genomeend 249

/* Organism #250 Fitness: 0.111111 Error: 0 */
genomestart 250
node 1 0 2 0
node 2 0 3 0
node 3 1 0 5
node 152 1 1 5
node 153 0 0 2
node 154 1 2 3
gene 1 3 5 1 5 1
gene 3 2 1 2 1 1
gene 3 1 2 4 2 1
gene 2 3 2 39 2 1
gene 154 152 2 165 2 1
gene 1 154 1 165 1 1
gene 152 153 3 165 3 1
gene 1 152 1 165 1 1
gene 153 154 1 332 1 1
gene 154 153 0 439 0 1
genomeend 250

/* Organism #251 Fitness: 0.142857 Error: 0 */
genomestart 251
node 1 0 0 0
node 2 0 0 4
node 3 1 3 4
node 152 1 0 0
node 153 0 0 2
node 154 1 1 1
gene 1 3 5 1 5 1
gene 3 2 2 2 2 1
gene 3 1 2 4 2 1
gene 2 3 2 39 2 1
gene 154 152 3 165 3 1
gene 1 154 2 165 2 1
gene 152 153 3 165 3 1
gene 1 152 1 165 1 1
gene 153 154 1 332 1 1
genomeend 251

/* Organism #252 Fitness: 0.0833333 Error: 0 */
genomestart 252
node 1 0 0 0
node 2 0 1 3
node 3 1 3 4
node 152 1 1 4
node 153 0 2 3
node 154 1 3 2
gene 1 3 5 1 5 1
gene 3 2 1 2 1 1
gene 3 1 2 4 2 1
gene 2 3 2 39 2 1
gene 154 152 2 165 2 1
gene 1 154 1 165 1 1
gene 152 153 3 165 3 1
gene 1 152 1 165 1 1
gene 153 154 1 332 1 1
gene 152 1 1 437 0 1
genomeend 252

/* Organism #253 Fitness: 0.164399 Error: 0 */
genomestart 253
node 1 0 1 2
node 2 0 0 0
node 3 1 1 0
node 152 1 2 1
node 153 0 2 0
node 154 1 0 3
gene 1 3 5 1 5 1
gene 3 2 1 2 1 1
gene 3 1 2 4 2 1
gene 2 3 3 39 3 1
gene 154 152 2 165 2 1
gene 1 154 1 165 1 1
gene 152 153 3 165 3 1
gene 1 152 1 165 1 1
gene 153 154 2 332 2 1
genomeend 253

/* Organism #254 Fitness: 0.142857 Error: 0 */
genomestart 254
node 1 0 1 5
node 2 0 0 1
node 3 1 1 3
node 152 1 0 1
node 153 0 1 2
node 154 1 3 3
gene 1 3 4 1 4 1
gene 3 2 1 2 1 1
gene 3 1 2 4 2 1
gene 2 3 2 39 2 1
gene 154 152 1 165 1 1
gene 1 154 1 165 1 1
gene 152 153 3 165 3 1
gene 1 152 1 165 1 1
gene 153 154 1 332 1 1
genomeend 254

/* Organism #255 Fitness: 0.166667 Error: 0 */
genomestart 255
node 1 0 3 4
node 2 0 0 0
node 3 1 2 4
node 152 1 1 4
node 153 0 1 2
node 154 1 0 2
gene 1 3 5 1 5 1
gene 3 2 1 2 1 1
gene 3 1 2 4 2 1
gene 2 3 2 39 2 1
gene 154 152 2 165 2 1
gene 1 154 1 165 1 1
gene 152 153 3 165 3 1
gene 1 152 1 165 1 1
gene 153 154 1 332 1 1
gene 154 153 0 439 0 1
genomeend 255

/* Organism #256 Fitness: 0.166667 Error: 0 */
genomestart 256
node 1 0 0 2
node 2 0 3 1
node 3 1 0 5
node 152 1 3 4
node 153 0 1 2
node 154 1 1 5
gene 1 3 5 1 5 1
gene 3 2 1 2 1 1
gene 3 1 2 4 2 1
gene 2 3 2 39 2 1
gene 154 152 2 165 2 1
gene 1 154 1 165 1 1
gene 152 153 3 165 3 1
gene 1 152 1 165 1 1
gene 153 154 1 332 1 1
gene 153 3 0 435 0 1
genomeend 256

/* Organism #257 Fitness: 0.166667 Error: 0 */
genomestart 257
node 1 0 1 0
node 2 0 0 3
node 3 1 0 4
node 152 1 0 1
node 153 0 3 5
node 154 1 1 3
gene 1 3 5 1 5 1
gene 3 2 1 2 1 1
gene 3 1 2 4 2 1
gene 2 3 2 39 2 1
gene 154 152 2 165 2 1
gene 1 154 1 165 1 1
gene 152 153 3 165 3 1
gene 1 152 1 165 1 1
gene 153 154 1 332 1 1
gene 153 152 1 438 0 1
genomeend 257

/* Organism #258 Fitness: 0.196116 Error: 0 */
genomestart 258
node 1 0 3 1
node 2 0 1 3
node 3 1 0 2
node 152 1 0 4
node 153 0 3 4
node 154 1 0 0
gene 1 3 5 1 5 1
gene 3 2 2 2 2 1
gene 3 1 2 4 2 1
gene 2 3 2 39 2 1
gene 154 152 2 165 2 1
gene 1 154 2 165 2 1
gene 152 153 3 165 3 1
gene 1 152 1 165 1 1
gene 153 154 2 332 2 1
genomeend 258

/* Organism #259 Fitness: 0.164399 Error: 0 */
genomestart 259
node 1 0 3 4
node 2 0 2 5
node 3 1 3 4
node 152 1 1 2
node 153 0 3 0
node 154 1 0 3
gene 1 3 4 1 4 1
gene 3 2 1 2 1 1
gene 3 1 2 4 2 1
gene 2 3 3 39 3 1
gene 154 152 1 165 1 1
gene 1 154 1 165 1 1
gene 152 153 4 165 4 1
gene 1 152 1 165 1 1
gene 153 154 1 332 1 1
genomeend 259

/* Organism #260 Fitness: 0.164399 Error: 0 */
genomestart 260
node 1 0 1 4
node 2 0 2 2
node 3 1 0 5
node 152 1 0 5
node 153 0 0 1
node 154 1 1 5
gene 1 3 5 1 5 1
gene 3 2 2 2 2 1
gene 3 1 2 4 2 1
gene 2 3 2 39 2 1
gene 154 152 3 165 3 1
gene 1 154 1 165 1 1
gene 152 153 3 165 3 1
gene 1 152 1 165 1 1
gene 153 154 1 332 1 1
genomeend 260

/* Organism #261 Fitness: 0.2 Error: 0 */
genomestart 261
node 1 0 0 5
node 2 0 3 5
node 3 1 1 2
node 152 1 0 4
node 153 0 2 3
node 154 1 1 4
gene 1 3 5 1 5 1
gene 3 2 1 2 1 1
gene 3 1 2 4 2 1
gene 2 3 2 39 2 1
gene 154 152 2 165 2 1
gene 1 154 1 165 1 1
gene 152 153 3 165 3 1
gene 1 152 1 165 1 1
gene 153 154 1 332 1 1
gene 154 153 0 439 0 1
genomeend 261

/* Organism #262 Fitness: 0.2 Error: 0 */
genomestart 262
node 1 0 3 5
node 2 0 2 2
node 3 1 1 1
node 152 1 0 1
node 153 0 1 2
node 154 1 2 5
gene 1 3 5 1 5 1
gene 3 2 1 2 1 1
gene 3 1 2 4 2 1
gene 2 3 2 39 2 1
gene 154 152 2 165 2 1
gene 1 154 1 165 1 1
gene 152 153 3 165 3 1
gene 1 152 1 165 1 1
gene 153 154 1 332 1 1
gene 152 2 0 480 0 1
genomeend 262

/* Organism #263 Fitness: 0.196116 Error: 0 */
genomestart 263
node 1 0 3 2
node 2 0 3 2
node 3 1 1 1
node 152 1 2 1
node 153 0 0 1
node 154 1 3 0
gene 1 3 5 1 5 1
gene 3 2 1 2 1 1
gene 3 1 2 4 2 1
gene 2 3 2 39 2 1
gene 154 152 1 165 1 1
gene 1 154 2 165 2 1
gene 152 153 3 165 3 1
gene 1 152 1 165 1 1
gene 153 154 1 332 1 1
genomeend 263

/* Organism #264 Fitness: 0.5 Error: 0 */
genomestart 264
node 1 0 1 3
node 2 0 0 0
node 3 1 2 0
node 152 1 3 5
node 153 0 1 3
node 154 1 3 3
gene 1 3 5 1 5 1
gene 3 2 1 2 1 1
gene 3 1 2 4 2 1
gene 2 3 2 39 2 1
gene 154 152 1 165 1 1
gene 1 154 1 165 1 1
gene 152 153 2 165 2 1
gene 1 152 1 165 1 1
gene 153 154 1 332 1 1
genomeend 264

/* Organism #265 Fitness: 0.166667 Error: 0 */
genomestart 265
node 1 0 1 1
node 2 0 0 0
node 3 1 3 0
node 152 1 0 4
node 153 0 1 0
node 154 1 2 4
gene 1 3 5 1 5 1
gene 3 2 1 2 1 1
gene 3 1 2 4 2 1
gene 2 3 2 39 2 1
gene 154 152 2 165 2 1
gene 1 154 1 165 1 1
gene 152 153 2 165 2 1
gene 1 152 1 165 1 1
gene 153 154 2 332 2 1
genomeend 265

/* Organism #266 Fitness: 0.171499 Error: 0 */
genomestart 266
node 1 0 3 0
node 2 0 1 3
node 3 1 3 5
node 152 1 0 4
node 153 0 3 5
node 154 1 3 1
gene 1 3 5 1 5 1
gene 3 2 1 2 1 1
gene 3 1 2 4 2 1
gene 2 3 2 39 2 1
gene 154 152 2 165 2 1
gene 1 154 1 165 1 1
gene 152 153 3 165 3 1
gene 1 152 1 165 1 1
gene 153 154 1 332 1 1
genomeend 266

/* Species #8 : (Size 48) (AF 0.177566) (Age 6)  */


/* Organism #267 Fitness: 0.166667 Error: 0 */
genomestart 267
node 1 0 2 4
node 2 0 1 3
node 3 1 0 3
gene 1 3 2 1 2 1
gene 3 2 3 2 3 1
gene 2 3 2 22 2 1
gene 3 1 1 38 1 1
genomeend 267

/* Organism #268 Fitness: 0.2 Error: 0 */
genomestart 268
node 1 0 2 1
node 2 0 0 2
node 3 1 3 1
node 122 1 1 4
node 123 0 3 0
node 124 1 3 5
gene 1 3 2 1 2 1
gene 3 2 4 2 4 1
gene 124 122 1 101 1 1
gene 1 124 1 101 1 1
gene 122 123 1 101 1 1
gene 1 122 1 101 1 1
gene 123 122 0 341 0 1
genomeend 268

/* Organism #269 Fitness: 0.166667 Error: 0 */
genomestart 269
node 1 0 1 4
node 2 0 3 0
node 3 1 1 2
gene 1 3 2 1 2 1
gene 3 2 3 2 3 1
gene 3 1 3 38 3 1
gene 2 3 3 58 3 1
genomeend 269

/* Organism #270 Fitness: 0.166667 Error: 0 */
genomestart 270
node 1 0 2 0
node 2 0 1 0
node 3 1 1 3
gene 1 3 2 1 2 1
gene 3 2 3 2 3 1
gene 2 3 2 22 2 1
gene 3 1 2 38 2 1
genomeend 270

/* Organism #271 Fitness: 0.164399 Error: 0 */
genomestart 271
node 1 0 0 5
node 2 0 0 2
node 3 1 1 2
node 122 1 1 4
node 123 0 1 3
node 124 1 2 5
gene 1 3 2 1 2 1
gene 3 2 3 2 3 1
gene 124 122 1 101 1 1
gene 1 124 2 101 2 1
gene 122 123 1 101 1 1
gene 1 122 2 101 2 1
gene 122 2 1 176 1 1
genomeend 271

/* Organism #272 Fitness: 0.166667 Error: 0 */
genomestart 272
node 1 0 3 2
node 2 0 2 5
node 3 1 0 1
node 122 1 2 2
node 123 0 3 1
node 124 1 2 2
gene 1 3 2 1 2 1
gene 3 2 3 2 3 1
gene 124 122 1 101 1 1
gene 1 124 1 101 1 1
gene 122 123 1 101 1 1
gene 1 122 1 101 1 1
gene 2 122 0 201 0 1
gene 123 124 1 363 1 1
genomeend 272

/* Organism #273 Fitness: 0.196116 Error: 0 */
genomestart 273
node 1 0 1 4
node 2 0 2 4
node 3 1 0 3
node 122 1 3 0
node 123 0 2 2
node 124 1 0 1
gene 1 3 2 1 2 1
gene 3 2 3 2 3 1
gene 124 122 1 101 1 1
gene 1 124 1 101 1 1
gene 122 123 1 101 1 1
gene 1 122 1 101 1 1
gene 122 2 1 364 1 1
genomeend 273

/* Organism #274 Fitness: 0.166667 Error: 0 */
genomestart 274
node 1 0 3 1
node 2 0 1 0
node 3 1 3 3
node 122 1 0 1
node 123 0 0 5
node 124 1 3 0
gene 1 3 1 1 1 1
gene 3 2 2 2 2 1
gene 124 122 1 101 1 1
gene 1 124 1 101 1 1
gene 122 123 1 101 1 1
gene 1 122 2 101 2 1
genomeend 274

/* Organism #275 Fitness: 0.166667 Error: 0 */
genomestart 275
node 1 0 0 3
node 2 0 0 0
node 3 1 3 0
node 122 1 3 4
node 123 0 0 4
node 124 1 1 3
gene 1 3 2 1 2 1
gene 3 2 3 2 3 1
gene 124 122 1 101 1 1
gene 1 124 1 101 1 1
gene 122 123 1 101 1 1
gene 1 122 1 101 1 1
gene 2 122 1 201 1 1
genomeend 275

/* Organism #276 Fitness: 0.142857 Error: 0 */
genomestart 276
node 1 0 0 3
node 2 0 1 5
node 3 1 1 3
node 122 1 1 2
node 123 0 3 5
node 124 1 1 2
gene 1 3 1 1 1 1
gene 3 2 2 2 2 1
gene 124 122 1 101 1 1
gene 1 124 2 101 2 1
gene 122 123 2 101 2 1
gene 1 122 2 101 2 1
genomeend 276

/* Organism #277 Fitness: 0.316228 Error: 0 */
genomestart 277
node 1 0 2 5
node 2 0 0 4
node 3 1 3 3
node 122 1 1 4
node 123 0 2 3
node 124 1 2 4
gene 1 3 2 1 2 1
gene 3 2 3 2 3 1
gene 124 122 1 101 1 1
gene 1 124 1 101 1 1
gene 122 123 1 101 1 1
gene 1 122 1 101 1 1
gene 2 122 0 201 0 1
gene 122 2 1 364 0 1
genomeend 277

/* Organism #278 Fitness: 0.142857 Error: 0 */
genomestart 278
node 1 0 1 3
node 2 0 1 1
node 3 1 1 0
node 122 1 2 5
node 123 0 3 4
node 124 1 2 5
gene 1 3 1 1 1 1
gene 3 2 3 2 3 1
gene 124 122 1 101 1 1
gene 1 124 1 101 1 1
gene 122 123 3 101 3 1
gene 1 122 1 101 1 1
gene 123 124 1 199 1 1
genomeend 278

/* Organism #279 Fitness: 0.166667 Error: 0 */
genomestart 279
node 1 0 0 4
node 2 0 3 0
node 3 1 1 3
gene 1 3 2 1 2 1
gene 3 2 3 2 3 1
gene 3 1 3 38 3 1
gene 2 3 3 58 3 1
genomeend 279

/* Organism #280 Fitness: 0.166667 Error: 0 */
genomestart 280
node 1 0 3 5
node 2 0 1 2
node 3 1 3 1
node 122 1 0 3
node 123 0 2 4
node 124 1 2 3
gene 1 3 2 1 2 1
gene 3 2 3 2 3 1
gene 124 122 1 101 1 1
gene 1 124 1 101 1 1
gene 122 123 2 101 2 1
gene 1 122 1 101 1 1
gene 123 124 1 199 1 1
genomeend 280

/* Organism #281 Fitness: 0.2 Error: 0 */
genomestart 281
node 1 0 3 3
node 2 0 2 2
node 3 1 2 0
node 122 1 0 2
node 123 0 2 5
node 124 1 2 5
gene 1 3 2 1 2 1
gene 3 2 3 2 3 1
gene 124 122 1 101 1 1
gene 1 124 2 101 2 1
gene 122 123 1 101 1 1
gene 1 122 2 101 2 1
gene 123 124 2 199 2 1
genomeend 281

/* Organism #282 Fitness: 0.142857 Error: 0 */
genomestart 282
node 1 0 2 4
node 2 0 2 5
node 3 1 3 5
node 122 1 1 4
node 123 0 1 1
node 124 1 2 5
gene 1 3 2 1 2 1
gene 3 2 3 2 3 1
gene 124 122 1 101 1 1
gene 1 124 1 101 1 1
gene 122 123 2 101 2 1
gene 1 122 1 101 1 1
gene 124 123 1 200 1 1
genomeend 282

/* Organism #283 Fitness: 0.142857 Error: 0 */
genomestart 283
node 1 0 3 1
node 2 0 0 2
node 3 1 3 5
node 122 1 2 1
node 123 0 2 0
node 124 1 2 0
gene 1 3 3 1 3 1
gene 3 2 3 2 3 1
gene 124 122 1 101 1 1
gene 1 124 3 101 3 1
gene 122 123 1 101 1 1
gene 1 122 2 101 2 1
gene 122 2 1 176 1 1
genomeend 283

/* Organism #284 Fitness: 0.166667 Error: 0 */
genomestart 284
node 1 0 3 2
node 2 0 3 2
node 3 1 0 4
node 122 1 0 3
node 123 0 0 5
node 124 1 3 1
node 185 1 0 4
gene 1 3 2 1 2 1
gene 3 2 3 2 3 1
gene 124 122 1 101 1 1
gene 1 124 1 101 1 1
gene 122 123 1 101 1 1
gene 1 122 1 101 1 1
gene 2 124 2 203 0 1
gene 185 123 2 284 2 1
gene 2 185 2 284 2 1
genomeend 284

/* Organism #285 Fitness: 0.164399 Error: 0 */
genomestart 285
node 1 0 2 5
node 2 0 2 3
node 3 1 2 2
node 122 1 3 2
node 123 0 2 0
node 124 1 2 4
gene 1 3 1 1 1 1
gene 3 2 1 2 1 1
gene 124 122 2 101 2 1
gene 1 124 1 101 1 1
gene 122 123 2 101 2 1
gene 1 122 2 101 2 1
gene 122 2 2 176 2 1
gene 3 123 3 249 3 1
genomeend 285

/* Organism #286 Fitness: 0.142857 Error: 0 */
genomestart 286
node 1 0 3 2
node 2 0 1 2
node 3 1 1 3
node 122 1 3 5
node 123 0 0 0
node 124 1 1 4
gene 1 3 2 1 2 1
gene 3 2 3 2 3 1
gene 124 122 1 101 1 1
gene 1 124 1 101 1 1
gene 122 123 1 101 1 1
gene 1 122 1 101 1 1
gene 123 124 2 199 2 1
gene 124 123 0 279 0 1
gene 123 122 0 341 0 1
genomeend 286

/* Organism #287 Fitness: 0.196116 Error: 0 */
genomestart 287
node 1 0 3 1
node 2 0 2 3
node 3 1 1 0
node 122 1 0 2
node 123 0 1 2
node 124 1 1 2
node 185 1 0 2
gene 1 3 2 1 2 1
gene 3 2 3 2 3 1
gene 124 122 1 101 1 1
gene 1 124 1 101 1 1
gene 122 123 1 101 1 1
gene 1 122 1 101 1 1
gene 2 124 2 203 0 1
gene 185 123 2 284 2 1
gene 2 185 2 284 2 1
genomeend 287

/* Organism #288 Fitness: 0.196116 Error: 0 */
genomestart 288
node 1 0 0 0
node 2 0 3 5
node 3 1 0 4
node 122 1 0 1
node 123 0 0 1
node 124 1 0 2
gene 1 3 3 1 3 1
gene 3 2 3 2 3 1
gene 124 122 2 101 2 1
gene 1 124 2 101 2 1
gene 122 123 1 101 1 1
gene 1 122 1 101 1 1
genomeend 288

/* Organism #289 Fitness: 0.158114 Error: 0 */
genomestart 289
node 1 0 2 4
node 2 0 1 4
node 3 1 1 4
node 122 1 2 4
node 123 0 2 1
node 124 1 0 2
gene 1 3 2 1 2 1
gene 3 2 2 2 2 1
gene 124 122 2 101 2 1
gene 1 124 1 101 1 1
gene 122 123 2 101 2 1
gene 1 122 1 101 1 1
gene 123 124 2 199 2 1
gene 124 123 1 279 1 1
genomeend 289

/* Organism #290 Fitness: 0.196116 Error: 0 */
genomestart 290
node 1 0 3 3
node 2 0 2 2
node 3 1 1 0
node 122 1 2 4
node 123 0 2 2
node 124 1 3 3
gene 1 3 3 1 3 1
gene 3 2 3 2 3 1
gene 124 122 2 101 2 1
gene 1 124 2 101 2 1
gene 122 123 1 101 1 1
gene 1 122 1 101 1 1
gene 124 1 2 367 2 1
genomeend 290

/* Organism #291 Fitness: 0.2 Error: 0 */
genomestart 291
node 1 0 2 2
node 2 0 2 0
node 3 1 2 0
node 122 1 1 3
node 123 0 0 0
node 124 1 1 5
gene 1 3 1 1 1 1
gene 3 2 2 2 2 1
gene 124 122 1 101 1 1
gene 1 124 2 101 2 1
gene 122 123 2 101 2 1
gene 1 122 1 101 1 1
gene 123 124 3 199 3 1
gene 124 123 1 279 1 1
genomeend 291

/* Organism #292 Fitness: 0.2 Error: 0 */
genomestart 292
node 1 0 3 3
node 2 0 1 5
node 3 1 2 4
node 122 1 1 2
node 123 0 3 5
node 124 1 3 5
gene 1 3 3 1 3 1
gene 3 2 3 2 3 1
gene 124 122 2 101 2 1
gene 1 124 1 101 1 1
gene 122 123 2 101 2 1
gene 1 122 1 101 1 1
gene 124 123 1 200 1 1
gene 2 3 0 351 0 1
genomeend 292

/* Organism #293 Fitness: 0.166667 Error: 0 */
genomestart 293
node 1 0 1 5
node 2 0 0 3
node 3 1 0 3
node 122 1 2 4
node 123 0 1 2
node 124 1 3 3
gene 1 3 3 1 3 1
gene 3 2 2 2 2 1
gene 124 122 1 101 1 1
gene 1 124 1 101 1 1
gene 122 123 3 101 3 1
gene 1 122 2 101 2 1
gene 122 2 2 176 2 1
genomeend 293

/* Organism #294 Fitness: 0.166667 Error: 0 */
genomestart 294
node 1 0 0 3
node 2 0 3 0
node 3 1 3 1
node 122 1 3 1
node 123 0 1 3
node 124 1 2 4
gene 1 3 3 1 3 1
gene 3 2 1 2 1 1
gene 124 122 1 101 1 1
gene 1 124 1 101 1 1
gene 122 123 2 101 2 1
gene 1 122 2 101 2 1
gene 124 1 2 233 2 1
genomeend 294

/* Organism #295 Fitness: 0.316228 Error: 0 */
genomestart 295
node 1 0 2 3
node 2 0 1 5
node 3 1 0 3
node 122 1 1 1
node 123 0 0 0
node 124 1 3 5
node 185 1 0 1
gene 1 3 2 1 2 1
gene 3 2 3 2 3 1
gene 124 122 1 101 1 1
gene 1 124 1 101 1 1
gene 122 123 1 101 1 1
gene 1 122 1 101 1 1
gene 2 124 2 203 0 1
gene 185 123 2 284 2 1
gene 2 185 2 284 2 1
genomeend 295

/* Organism #296 Fitness: 0.121268 Error: 0 */
genomestart 296
node 1 0 1 1
node 2 0 1 0
node 3 1 1 4
node 122 1 2 0
node 123 0 1 4
node 124 1 0 2
gene 1 3 2 1 2 1
gene 3 2 3 2 3 1
gene 124 122 1 101 1 1
gene 1 124 1 101 1 1
gene 122 123 1 101 1 1
gene 1 122 1 101 1 1
gene 2 124 2 203 0 1
gene 122 2 0 281 0 1
gene 3 1 2 368 2 1
genomeend 296

/* Organism #297 Fitness: 0.2 Error: 0 */
genomestart 297
node 1 0 1 5
node 2 0 1 0
node 3 1 2 0
node 122 1 3 2
node 123 0 0 5
node 124 1 2 0
gene 1 3 3 1 3 1
gene 3 2 2 2 2 1
gene 124 122 2 101 2 1
gene 1 124 2 101 2 1
gene 122 123 2 101 2 1
gene 1 122 2 101 2 1
gene 122 2 1 176 1 1
gene 2 124 1 369 1 1
genomeend 297

/* Organism #298 Fitness: 0.164399 Error: 0 */
genomestart 298
node 1 0 1 2
node 2 0 3 5
node 3 1 1 5
node 122 1 2 5
node 123 0 3 2
node 124 1 2 1
gene 1 3 2 1 2 1
gene 3 2 3 2 3 1
gene 124 122 1 101 1 1
gene 1 124 1 101 1 1
gene 122 123 1 101 1 1
gene 1 122 1 101 1 1
gene 2 124 2 203 0 1
gene 122 2 0 281 0 1
genomeend 298

/* Organism #299 Fitness: 0.196116 Error: 0 */
genomestart 299
node 1 0 1 0
node 2 0 1 3
node 3 1 1 4
node 122 1 2 1
node 123 0 2 3
node 124 1 3 5
gene 1 3 2 1 2 1
gene 3 2 2 2 2 1
gene 124 122 1 101 1 1
gene 1 124 2 101 2 1
gene 122 123 1 101 1 1
gene 1 122 2 101 2 1
gene 122 2 1 176 1 1
genomeend 299

/* Organism #300 Fitness: 0.164399 Error: 0 */
genomestart 300
node 1 0 3 1
node 2 0 1 4
node 3 1 2 4
node 122 1 2 1
node 123 0 1 5
node 124 1 2 3
gene 1 3 2 1 2 1
gene 3 2 4 2 4 1
gene 124 122 2 101 2 1
gene 1 124 1 101 1 1
gene 122 123 1 101 1 1
gene 1 122 1 101 1 1
gene 124 123 2 200 2 1
genomeend 300

/* Organism #301 Fitness: 0.166667 Error: 0 */
genomestart 301
node 1 0 3 4
node 2 0 1 1
node 3 1 3 4
gene 1 3 2 1 2 1
gene 3 2 3 2 3 1
gene 3 1 2 19 2 1
gene 2 3 2 39 2 1
genomeend 301

/* Organism #302 Fitness: 0.166667 Error: 0 */
genomestart 302
node 1 0 2 3
node 2 0 2 5
node 3 1 0 4
node 122 1 2 0
node 123 0 1 0
node 124 1 0 3
gene 1 3 2 1 2 1
gene 3 2 3 2 3 1
gene 124 122 2 101 2 1
gene 1 124 1 101 1 1
gene 122 123 1 101 1 1
gene 1 122 1 101 1 1
gene 124 123 1 200 1 1
gene 2 122 1 278 1 1
genomeend 302

/* Organism #303 Fitness: 0.125 Error: 0 */
genomestart 303
node 1 0 1 5
node 2 0 1 5
node 3 1 3 3
node 122 1 2 5
node 123 0 1 2
node 124 1 1 4
node 185 1 2 2
gene 1 3 2 1 2 1
gene 3 2 3 2 3 1
gene 124 122 2 101 2 1
gene 1 124 1 101 1 1
gene 122 123 1 101 1 1
gene 1 122 2 101 2 1
gene 2 124 1 203 1 1
gene 185 123 2 284 2 1
gene 2 185 3 284 3 1
genomeend 303

/* Organism #304 Fitness: 0.164399 Error: 0 */
genomestart 304
node 1 0 0 1
node 2 0 0 4
node 3 1 0 0
node 122 1 1 5
node 123 0 1 4
node 124 1 0 1
gene 1 3 2 1 2 1
gene 3 2 2 2 2 1
gene 124 122 1 101 1 1
gene 1 124 2 101 2 1
gene 122 123 1 101 1 1
gene 1 122 1 101 1 1
gene 124 1 1 233 1 1
genomeend 304

/* Organism #305 Fitness: 0.124035 Error: 0 */
genomestart 305
node 1 0 3 0
node 2 0 1 2
node 3 1 1 0
node 122 1 2 4
node 123 0 2 3
node 124 1 2 2
node 182 1 1 0
node 183 0 3 2
node 184 1 1 1
gene 1 3 1 1 1 1
gene 3 2 2 2 2 1
gene 124 122 1 101 1 1
gene 1 124 2 101 2 1
gene 122 123 1 101 1 1
gene 1 122 1 101 1 1
gene 184 182 2 282 2 1
gene 1 184 1 282 1 1
gene 182 183 2 282 2 1
gene 1 182 2 282 2 1
genomeend 305

/* Organism #306 Fitness: 0.166667 Error: 0 */
genomestart 306
node 1 0 1 3
node 2 0 3 3
node 3 1 2 0
node 122 1 0 0
node 123 0 0 1
node 124 1 0 1
node 182 1 3 3
node 183 0 2 1
node 184 1 2 0
gene 1 3 1 1 1 1
gene 3 2 2 2 2 1
gene 124 122 1 101 1 1
gene 1 124 2 101 2 1
gene 122 123 1 101 1 1
gene 1 122 1 101 1 1
gene 184 182 2 282 2 1
gene 1 184 1 282 1 1
gene 182 183 2 282 2 1
gene 1 182 2 282 2 1
genomeend 306

/* Organism #307 Fitness: 0.166667 Error: 0 */
genomestart 307
node 1 0 0 1
node 2 0 0 2
node 3 1 3 1
node 122 1 3 1
node 123 0 3 0
node 124 1 3 1
node 182 1 2 1
node 183 0 0 0
node 184 1 2 2
gene 1 3 2 1 2 1
gene 3 2 1 2 1 1
gene 124 122 1 101 1 1
gene 1 124 2 101 2 1
gene 122 123 1 101 1 1
gene 1 122 1 101 1 1
gene 184 182 1 282 1 1
gene 1 184 1 282 1 1
gene 182 183 2 282 2 1
gene 1 182 3 282 3 1
genomeend 307

/* Organism #308 Fitness: 0.196116 Error: 0 */
genomestart 308
node 1 0 1 4
node 2 0 2 5
node 3 1 1 4
node 122 1 1 1
node 123 0 3 1
node 124 1 3 4
node 182 1 1 2
node 183 0 3 1
node 184 1 3 0
gene 1 3 1 1 1 1
gene 3 2 2 2 2 1
gene 124 122 1 101 1 1
gene 1 124 2 101 2 1
gene 122 123 1 101 1 1
gene 1 122 1 101 1 1
gene 184 182 2 282 2 1
gene 1 184 1 282 1 1
gene 182 183 2 282 2 1
gene 1 182 2 282 2 1
genomeend 308

/* Organism #309 Fitness: 0.141421 Error: 0 */
genomestart 309
node 1 0 2 1
node 2 0 1 5
node 3 1 3 1
node 122 1 0 4
node 123 0 0 2
node 124 1 2 3
node 182 1 1 0
node 183 0 2 0
node 184 1 1 2
gene 1 3 1 1 1 1
gene 3 2 3 2 3 1
gene 124 122 1 101 1 1
gene 1 124 2 101 2 1
gene 122 123 1 101 1 1
gene 1 122 1 101 1 1
gene 184 182 2 282 2 1
gene 1 184 1 282 1 1
gene 182 183 3 282 3 1
gene 1 182 2 282 2 1
genomeend 309

/* Organism #310 Fitness: 0.316228 Error: 0 */
genomestart 310
node 1 0 2 4
node 2 0 0 4
node 3 1 0 5
node 122 1 0 2
node 123 0 2 5
node 124 1 3 5
node 182 1 3 1
node 183 0 3 2
node 184 1 1 3
gene 1 3 1 1 1 1
gene 3 2 3 2 3 1
gene 124 122 1 101 1 1
gene 1 124 2 101 2 1
gene 122 123 1 101 1 1
gene 1 122 1 101 1 1
gene 184 182 2 282 2 1
gene 1 184 2 282 2 1
gene 182 183 3 282 3 1
gene 1 182 3 282 3 1
genomeend 310

/* Organism #311 Fitness: 0.125 Error: 0 */
genomestart 311
node 1 0 1 0
node 2 0 1 1
node 3 1 1 1
node 122 1 3 4
node 123 0 0 4
node 124 1 2 5
node 182 1 3 5
node 183 0 1 1
node 184 1 1 3
gene 1 3 2 1 2 1
gene 3 2 3 2 3 1
gene 124 122 1 101 1 1
gene 1 124 2 101 2 1
gene 122 123 2 101 2 1
gene 1 122 2 101 2 1
gene 184 182 1 282 1 1
gene 1 184 2 282 2 1
gene 182 183 2 282 2 1
gene 1 182 2 282 2 1
genomeend 311

/* Organism #312 Fitness: 0.2 Error: 0 */
genomestart 312
node 1 0 2 1
node 2 0 1 2
node 3 1 1 2
node 122 1 0 4
node 123 0 1 3
node 124 1 1 4
node 182 1 0 3
node 183 0 0 0
node 184 1 2 4
gene 1 3 1 1 1 1
gene 3 2 2 2 2 1
gene 124 122 1 101 1 1
gene 1 124 2 101 2 1
gene 122 123 1 101 1 1
gene 1 122 1 101 1 1
gene 184 182 2 282 2 1
gene 1 184 1 282 1 1
gene 182 183 2 282 2 1
gene 1 182 3 282 3 1
genomeend 312

/* Organism #313 Fitness: 0.166667 Error: 0 */
genomestart 313
node 1 0 3 5
node 2 0 2 1
node 3 1 0 3
node 122 1 3 0
node 123 0 3 4
node 124 1 3 3
gene 1 3 4 1 4 1
gene 3 2 2 2 2 1
gene 124 122 2 101 2 1
gene 1 124 2 101 2 1
gene 122 123 3 101 3 1
gene 1 122 4 101 4 1
gene 122 2 1 176 1 1
genomeend 313

/* Organism #314 Fitness: 0.2 Error: 0 */
genomestart 314
node 1 0 3 1
node 2 0 3 3
node 3 1 3 1
node 122 1 2 5
node 123 0 2 4
node 124 1 3 0
gene 1 3 3 1 3 1
gene 3 2 1 2 1 1
gene 124 122 3 101 3 1
gene 1 124 2 101 2 1
gene 122 123 3 101 3 1
gene 1 122 3 101 3 1
gene 122 2 1 176 1 1
genomeend 314

/* Species #11 : (Size 57) (AF 0.187746) (Age 5)  */


/* Organism #315 Fitness: 0.166667 Error: 0 */
genomestart 315
node 1 0 3 1
node 2 0 1 2
node 3 1 3 5
gene 1 3 5 1 5 1
gene 3 2 3 2 3 1
genomeend 315

/* Organism #316 Fitness: 0.166667 Error: 0 */
genomestart 316
node 1 0 1 5
node 2 0 3 0
node 3 1 1 4
node 161 1 1 1
node 162 0 2 3
gene 1 3 4 1 4 1
gene 3 2 3 2 3 1
gene 3 1 3 19 3 1
gene 2 3 3 39 3 1
gene 161 162 1 198 1 1
gene 2 161 1 198 1 1
gene 161 1 0 360 0 1
genomeend 316

/* Organism #317 Fitness: 0.166667 Error: 0 */
genomestart 317
node 1 0 1 1
node 2 0 2 1
node 3 1 0 1
gene 1 3 4 1 4 1
gene 3 2 3 2 3 1
gene 3 1 2 19 2 1
gene 2 3 2 39 2 1
genomeend 317

/* Organism #318 Fitness: 0.141421 Error: 0 */
genomestart 318
node 1 0 2 1
node 2 0 0 4
node 3 1 0 5
node 28 1 3 5
node 29 0 3 5
node 30 1 2 4
gene 1 3 4 1 4 1
gene 3 2 4 2 4 1
gene 2 3 3 3 3 1
gene 30 28 5 20 5 1
gene 2 30 4 20 4 1
gene 28 29 1 20 1 1
gene 2 28 3 20 3 1
genomeend 318

/* Organism #319 Fitness: 0.142857 Error: 0 */
genomestart 319
node 1 0 3 2
node 2 0 1 1
node 3 1 1 1
node 28 1 0 2
node 29 0 3 1
node 30 1 3 5
gene 1 3 5 1 5 1
gene 3 2 4 2 4 1
gene 2 3 3 3 3 1
gene 30 28 4 20 4 1
gene 2 30 3 20 3 1
gene 28 29 1 20 1 1
gene 2 28 4 20 4 1
genomeend 319

/* Organism #320 Fitness: 0.166667 Error: 0 */
genomestart 320
node 1 0 3 5
node 2 0 2 4
node 3 1 2 4
gene 1 3 5 1 5 1
gene 3 2 3 2 3 1
genomeend 320

/* Organism #321 Fitness: 0.166667 Error: 0 */
genomestart 321
node 1 0 2 4
node 2 0 0 0
node 3 1 3 4
gene 1 3 5 1 5 1
gene 3 2 4 2 4 1
gene 3 1 1 19 1 1
gene 2 3 2 96 2 1
genomeend 321

/* Organism #322 Fitness: 0.166667 Error: 0 */
genomestart 322
node 1 0 1 2
node 2 0 3 1
node 3 1 1 3
node 161 1 3 1
node 162 0 2 4
gene 1 3 5 1 5 1
gene 3 2 4 2 4 1
gene 3 1 3 19 3 1
gene 2 3 2 39 2 1
gene 161 162 2 198 2 1
gene 2 161 2 198 2 1
gene 161 1 2 360 2 1
genomeend 322

/* Organism #323 Fitness: 0.166667 Error: 0 */
genomestart 323
node 1 0 0 4
node 2 0 1 0
node 3 1 1 1
gene 1 3 5 1 5 1
gene 3 2 4 2 4 1
gene 3 1 3 93 3 1
genomeend 323

/* Organism #324 Fitness: 0.166667 Error: 0 */
genomestart 324
node 1 0 2 1
node 2 0 1 5
node 3 1 3 0
gene 1 3 4 1 4 1
gene 3 2 5 2 5 1
genomeend 324

/* Organism #325 Fitness: 0.166667 Error: 0 */
genomestart 325
node 1 0 0 2
node 2 0 2 1
node 3 1 3 3
gene 1 3 5 1 5 1
gene 3 2 4 2 4 1
gene 2 3 1 22 1 1
genomeend 325

/* Organism #326 Fitness: 0.166667 Error: 0 */
genomestart 326
node 1 0 0 4
node 2 0 0 4
node 3 1 3 1
gene 1 3 5 1 5 1
gene 3 2 3 2 3 1
gene 3 1 2 368 0 1
genomeend 326

/* Organism #327 Fitness: 0.166667 Error: 0 */
genomestart 327
node 1 0 2 5
node 2 0 3 5
node 3 1 1 5
gene 1 3 4 1 4 1
gene 3 2 4 2 5 1
gene 2 3 3 22 3 1
gene 3 1 1 38 1 1
genomeend 327

/* Organism #328 Fitness: 0.166667 Error: 0 */
genomestart 328
node 1 0 2 0
node 2 0 2 0
node 3 1 0 3
gene 1 3 4 1 4 1
gene 3 2 5 2 5 1
gene 2 3 2 22 2 1
gene 3 1 1 38 1 1
genomeend 328

/* Organism #329 Fitness: 0.166667 Error: 0 */
genomestart 329
node 1 0 3 4
node 2 0 0 0
node 3 1 0 3
gene 1 3 4 1 4 1
gene 3 2 5 2 5 1
gene 3 1 1 38 1 1
gene 2 3 3 39 3 1
genomeend 329

/* Organism #330 Fitness: 0.164399 Error: 0 */
genomestart 330
node 1 0 2 5
node 2 0 2 4
node 3 1 3 2
gene 1 3 4 1 4 1
gene 3 2 5 2 5 1
gene 2 3 1 232 0 1
genomeend 330

/* Organism #331 Fitness: 0.166667 Error: 0 */
genomestart 331
node 1 0 3 4
node 2 0 3 0
node 3 1 3 0
gene 1 3 4 1 4 1
gene 3 2 5 2 5 1
gene 2 3 3 22 3 1
gene 3 1 1 38 1 1
genomeend 331

/* Organism #332 Fitness: 0.166667 Error: 0 */
genomestart 332
node 1 0 3 0
node 2 0 0 1
node 3 1 2 3
gene 1 3 4 1 4 1
gene 3 2 5 2 5 1
gene 3 1 1 38 1 1
gene 2 3 3 39 3 1
genomeend 332

/* Organism #333 Fitness: 0.0198575 Error: 0 */
genomestart 333
node 1 0 2 0
node 2 0 3 1
node 3 1 0 0
gene 1 3 4 1 4 1
gene 3 2 5 2 5 1
gene 3 1 5 4 5 1
gene 2 3 2 39 2 1
genomeend 333

/* Organism #334 Fitness: 0.142857 Error: 0 */
genomestart 334
node 1 0 3 1
node 2 0 2 0
node 3 1 3 1
gene 1 3 4 1 4 1
gene 3 2 5 2 5 1
gene 3 1 1 38 1 1
gene 2 3 3 39 3 1
genomeend 334

/* Organism #335 Fitness: 0.164399 Error: 0 */
genomestart 335
node 1 0 3 4
node 2 0 1 3
node 3 1 2 5
gene 1 3 4 1 4 1
gene 3 2 5 2 5 1
gene 3 1 1 38 1 1
gene 2 3 3 39 3 1
genomeend 335

/* Organism #336 Fitness: 0.166667 Error: 0 */
genomestart 336
node 1 0 0 0
node 2 0 3 0
node 3 1 0 3
gene 1 3 4 1 4 1
gene 3 2 5 2 5 1
gene 3 1 1 38 1 1
gene 2 3 3 39 3 1
genomeend 336

/* Organism #337 Fitness: 0.2 Error: 0 */
genomestart 337
node 1 0 0 5
node 2 0 0 5
node 3 1 3 5
gene 1 3 4 1 4 1
gene 3 2 3 2 3 1
gene 2 3 2 58 2 1
gene 3 1 1 145 1 1
genomeend 337

/* Organism #338 Fitness: 0.166667 Error: 0 */
genomestart 338
node 1 0 1 3
node 2 0 1 4
node 3 1 2 1
node 131 1 2 1
node 132 0 2 3
node 133 1 3 4
gene 1 3 4 1 4 1
gene 3 2 3 2 3 1
gene 2 3 2 96 2 1
gene 133 131 1 111 1 1
gene 1 133 1 111 1 1
gene 131 132 1 111 1 1
gene 1 131 1 111 1 1
genomeend 338

/* Organism #339 Fitness: 0.149071 Error: 0 */
genomestart 339
node 1 0 2 1
node 2 0 3 2
node 3 1 0 5
node 28 1 0 1
node 29 0 3 0
node 30 1 3 1
gene 1 3 4 1 4 1
gene 3 2 3 2 3 1
gene 2 3 2 3 2 1
gene 30 28 4 20 4 1
gene 2 30 1 20 1 1
gene 28 29 1 20 1 1
gene 2 28 4 20 4 1
genomeend 339

/* Organism #340 Fitness: 1 Error: 0 */
genomestart 340
node 1 0 2 5
node 2 0 1 5
node 3 1 0 4
node 28 1 0 1
node 29 0 0 2
node 30 1 2 1
gene 1 3 4 1 4 1
gene 3 2 4 2 4 1
gene 2 3 5 3 5 1
gene 30 28 5 20 5 1
gene 2 30 1 20 1 1
gene 28 29 1 20 1 1
gene 2 28 2 20 2 1
gene 30 1 3 116 3 1
gene 29 3 1 146 1 1
genomeend 340

/* Organism #341 Fitness: 0.2 Error: 0 */
genomestart 341
node 1 0 3 1
node 2 0 1 0
node 3 1 1 0
node 155 1 2 5
node 156 0 1 2
node 157 1 1 1
gene 1 3 4 1 4 1
gene 3 2 3 2 3 1
gene 2 3 4 22 4 1
gene 157 155 1 177 1 1
gene 1 157 1 177 1 1
gene 155 156 2 177 2 1
gene 1 155 2 177 2 1
genomeend 341

/* Organism #342 Fitness: 0.158114 Error: 0 */
genomestart 342
node 1 0 3 4
node 2 0 2 4
node 3 1 0 3
node 179 1 3 2
node 180 0 2 0
node 181 1 2 4
gene 1 3 4 1 4 1
gene 3 2 4 2 4 1
gene 3 1 3 19 3 1
gene 2 3 2 96 2 1
gene 181 179 2 256 2 1
gene 1 181 1 256 1 1
gene 179 180 1 256 1 1
gene 1 179 1 256 1 1
genomeend 342

/* Organism #343 Fitness: 0.164399 Error: 0 */
genomestart 343
node 1 0 0 3
node 2 0 3 5
node 3 1 1 5
node 179 1 2 1
node 180 0 1 2
node 181 1 3 1
gene 1 3 4 1 4 1
gene 3 2 4 2 4 1
gene 3 1 3 19 3 1
gene 2 3 2 96 2 1
gene 181 179 2 256 2 1
gene 1 181 1 256 1 1
gene 179 180 1 256 1 1
gene 1 179 1 256 1 1
genomeend 343

/* Organism #344 Fitness: 0.142857 Error: 0 */
genomestart 344
node 1 0 1 2
node 2 0 2 4
node 3 1 0 2
node 179 1 0 0
node 180 0 2 1
node 181 1 2 1
gene 1 3 4 1 4 1
gene 3 2 4 2 4 1
gene 3 1 3 19 3 1
gene 2 3 2 96 2 1
gene 181 179 2 256 2 1
gene 1 181 1 256 1 1
gene 179 180 1 256 1 1
gene 1 179 1 256 1 1
gene 181 2 1 454 1 1
genomeend 344

/* Organism #345 Fitness: 0.111111 Error: 0 */
genomestart 345
node 1 0 2 0
node 2 0 2 5
node 3 1 3 3
node 179 1 2 0
node 180 0 2 5
node 181 1 0 4
gene 1 3 4 1 4 1
gene 3 2 4 2 4 1
gene 3 1 3 19 3 1
gene 2 3 2 96 2 1
gene 181 179 2 256 2 1
gene 1 181 1 256 1 1
gene 179 180 1 256 1 1
gene 1 179 1 256 1 1
gene 179 1 2 455 2 1
genomeend 345

/* Organism #346 Fitness: 0.166667 Error: 0 */
genomestart 346
node 1 0 0 1
node 2 0 0 1
node 3 1 2 4
node 179 1 0 3
node 180 0 1 5
node 181 1 1 4
gene 1 3 4 1 4 1
gene 3 2 4 2 4 1
gene 3 1 2 19 2 1
gene 2 3 1 96 1 1
gene 181 179 2 256 2 1
gene 1 181 2 256 2 1
gene 179 180 1 256 1 1
gene 1 179 2 256 2 1
genomeend 346

/* Organism #347 Fitness: 0.158114 Error: 0 */
genomestart 347
node 1 0 2 1
node 2 0 2 4
node 3 1 3 1
node 179 1 0 3
node 180 0 0 2
node 181 1 0 3
gene 1 3 4 1 4 1
gene 3 2 4 2 4 1
gene 3 1 3 19 3 1
gene 2 3 2 96 2 1
gene 181 179 2 256 2 1
gene 1 181 1 256 1 1
gene 179 180 1 256 1 1
gene 1 179 1 256 1 1
gene 2 181 2 456 2 1
genomeend 347

/* Organism #348 Fitness: 0.333333 Error: 0 */
genomestart 348
node 1 0 2 0
node 2 0 0 0
node 3 1 3 2
node 179 1 0 0
node 180 0 0 3
node 181 1 3 1
gene 1 3 4 1 4 1
gene 3 2 4 2 4 1
gene 3 1 3 19 3 1
gene 2 3 2 96 2 1
gene 181 179 2 256 2 1
gene 1 181 1 256 1 1
gene 179 180 1 256 1 1
gene 1 179 1 256 1 1
gene 181 2 1 454 0 1
genomeend 348

/* Organism #349 Fitness: 0.166667 Error: 0 */
genomestart 349
node 1 0 0 3
node 2 0 1 1
node 3 1 1 0
node 179 1 2 4
node 180 0 2 5
node 181 1 1 3
gene 1 3 4 1 4 1
gene 3 2 4 2 4 1
gene 3 1 3 19 3 1
gene 2 3 2 96 2 1
gene 181 179 2 256 2 1
gene 1 181 1 256 1 1
gene 179 180 1 256 1 1
gene 1 179 1 256 1 1
gene 2 181 2 456 0 1
genomeend 349

/* Organism #350 Fitness: 0.124035 Error: 0 */
genomestart 350
node 1 0 3 4
node 2 0 1 0
node 3 1 3 5
node 179 1 2 4
node 180 0 1 0
node 181 1 1 4
gene 1 3 4 1 4 1
gene 3 2 4 2 4 1
gene 3 1 3 19 3 1
gene 2 3 2 96 2 1
gene 181 179 2 256 2 1
gene 1 181 1 256 1 1
gene 179 180 1 256 1 1
gene 1 179 1 256 1 1
gene 181 1 0 457 0 1
genomeend 350

/* Organism #351 Fitness: 0.111111 Error: 0 */
genomestart 351
node 1 0 2 1
node 2 0 1 2
node 3 1 3 4
node 179 1 1 3
node 180 0 0 3
node 181 1 0 5
gene 1 3 4 1 4 1
gene 3 2 4 2 4 1
gene 3 1 3 19 3 1
gene 2 3 2 96 2 1
gene 181 179 2 256 2 1
gene 1 181 1 256 1 1
gene 179 180 1 256 1 1
gene 1 179 1 256 1 1
gene 181 180 2 458 2 1
genomeend 351

/* Organism #352 Fitness: 0.110432 Error: 0 */
genomestart 352
node 1 0 3 5
node 2 0 3 0
node 3 1 1 1
node 179 1 3 0
node 180 0 3 3
node 181 1 3 0
gene 1 3 4 1 4 1
gene 3 2 4 2 4 1
gene 3 1 3 19 3 1
gene 2 3 2 96 2 1
gene 181 179 2 256 2 1
gene 1 181 1 256 1 1
gene 179 180 1 256 1 1
gene 1 179 1 256 1 1
gene 180 179 1 459 1 1
genomeend 352

/* Organism #353 Fitness: 0.149071 Error: 0 */
genomestart 353
node 1 0 0 1
node 2 0 1 3
node 3 1 0 5
node 179 1 1 4
node 180 0 0 3
node 181 1 1 3
gene 1 3 4 1 4 1
gene 3 2 4 2 4 1
gene 3 1 3 19 3 1
gene 2 3 1 96 1 1
gene 181 179 3 256 3 1
gene 1 181 1 256 1 1
gene 179 180 1 256 1 1
gene 1 179 1 256 1 1
genomeend 353

/* Organism #354 Fitness: 0.121268 Error: 0 */
genomestart 354
node 1 0 1 3
node 2 0 1 2
node 3 1 0 1
node 179 1 0 1
node 180 0 0 3
node 181 1 1 3
gene 1 3 4 1 4 1
gene 3 2 4 2 4 1
gene 3 1 3 19 3 1
gene 2 3 2 96 2 1
gene 181 179 2 256 2 1
gene 1 181 1 256 1 1
gene 179 180 1 256 1 1
gene 1 179 1 256 1 1
genomeend 354

/* Organism #355 Fitness: 0.142857 Error: 0 */
genomestart 355
node 1 0 1 3
node 2 0 0 0
node 3 1 3 3
node 179 1 3 2
node 180 0 1 2
node 181 1 3 4
gene 1 3 4 1 4 1
gene 3 2 4 2 4 1
gene 3 1 3 19 3 1
gene 2 3 2 96 2 1
gene 181 179 2 256 2 1
gene 1 181 1 256 1 1
gene 179 180 1 256 1 1
gene 1 179 1 256 1 1
gene 180 3 0 460 0 1
genomeend 355

/* Organism #356 Fitness: 0.196116 Error: 0 */
genomestart 356
node 1 0 0 5
node 2 0 2 5
node 3 1 1 5
node 179 1 2 3
node 180 0 3 1
node 181 1 2 1
gene 1 3 4 1 4 1
gene 3 2 4 2 4 1
gene 3 1 3 19 3 1
gene 2 3 2 96 2 1
gene 181 179 2 256 2 1
gene 1 181 1 256 1 1
gene 179 180 1 256 1 1
gene 1 179 1 256 1 1
gene 181 180 2 458 0 1
genomeend 356

/* Organism #357 Fitness: 0.164399 Error: 0 */
genomestart 357
node 1 0 0 5
node 2 0 3 5
node 3 1 3 1
node 179 1 0 0
node 180 0 2 5
node 181 1 2 1
gene 1 3 4 1 4 1
gene 3 2 4 2 4 1
gene 3 1 3 19 3 1
gene 2 3 2 96 2 1
gene 181 179 2 256 2 1
gene 1 181 1 256 1 1
gene 179 180 1 256 1 1
gene 1 179 1 256 1 1
genomeend 357

/* Organism #358 Fitness: 0.164399 Error: 0 */
genomestart 358
node 1 0 0 5
node 2 0 1 3
node 3 1 3 3
node 179 1 3 3
node 180 0 1 5
node 181 1 2 0
gene 1 3 4 1 4 1
gene 3 2 4 2 4 1
gene 3 1 2 19 2 1
gene 2 3 2 96 2 1
gene 181 179 3 256 3 1
gene 1 181 2 256 2 1
gene 179 180 1 256 1 1
gene 1 179 1 256 1 1
genomeend 358

/* Organism #359 Fitness: 0.166667 Error: 0 */
genomestart 359
node 1 0 1 3
node 2 0 0 1
node 3 1 1 5
node 179 1 1 4
node 180 0 1 5
node 181 1 3 0
gene 1 3 4 1 4 1
gene 3 2 4 2 4 1
gene 3 1 3 19 3 1
gene 2 3 1 96 1 1
gene 181 179 2 256 2 1
gene 1 181 1 256 1 1
gene 179 180 1 256 1 1
gene 1 179 2 256 2 1
